{"learner":{"attributes":{"scikit_learn":"{\"_estimator_type\": \"classifier\"}"},"feature_names":["acc_mean","acc_std","acc_max"],"feature_types":["float","float","float"],"gradient_booster":{"model":{"cats":{"enc":[],"feature_segments":[],"sorted_idx":[]},"gbtree_model_param":{"num_parallel_tree":"1","num_trees":"100"},"iteration_indptr":[0,1,2,3,4,5,6,7,8,9,10,11,12,13,14,15,16,17,18,19,20,21,22,23,24,25,26,27,28,29,30,31,32,33,34,35,36,37,38,39,40,41,42,43,44,45,46,47,48,49,50,51,52,53,54,55,56,57,58,59,60,61,62,63,64,65,66,67,68,69,70,71,72,73,74,75,76,77,78,79,80,81,82,83,84,85,86,87,88,89,90,91,92,93,94,95,96,97,98,99,100],"tree_info":[0,0,0,0,0,0,0,0,0,0,0,0,0,0,0,0,0,0,0,0,0,0,0,0,0,0,0,0,0,0,0,0,0,0,0,0,0,0,0,0,0,0,0,0,0,0,0,0,0,0,0,0,0,0,0,0,0,0,0,0,0,0,0,0,0,0,0,0,0,0,0,0,0,0,0,0,0,0,0,0,0,0,0,0,0,0,0,0,0,0,0,0,0,0,0,0,0,0,0,0],"trees":[{"base_weights":[-7.4179822E-9,-1.7018571E0,9.4069296E-1,-1.9964896E-1,-6.669879E-1,1.3272977E0,-1.9870968E-1,1.7590581E-1,-1.9812647E-1,-1.6103724E-2,1.7019022E-1],"categories":[],"categories_nodes":[],"categories_segments":[],"categories_sizes":[],"default_left":[0,0,0,0,0,0,0,0,0,0,0],"id":0,"left_children":[1,3,5,-1,7,9,-1,-1,-1,-1,-1],"loss_changes":[3.2947036E3,2.2204443E2,1.502848E3,0E0,5.2593695E2,6.533699E2,0E0,0E0,0E0,0E0,0E0],"parents":[2147483647,0,0,1,1,2,2,4,4,5,5],"right_children":[2,4,6,-1,8,10,-1,-1,-1,-1,-1],"split_conditions":[2.8994405E-3,7.2149664E-1,7.2266906E-1,-1.9964896E-1,7.2151566E-1,7.2069055E-1,-1.9870968E-1,1.7590581E-1,-1.9812647E-1,-1.6103724E-2,1.7019022E-1],"split_indices":[1,0,0,0,0,0,0,0,0,0,0],"split_type":[0,0,0,0,0,0,0,0,0,0,0],"sum_hessian":[2.056E3,7.316053E2,1.3243948E3,5.6875E2,1.6285526E2,1.1703948E3,1.54E2,5.7105263E1,1.0575E2,2.3546053E2,9.349342E2],"tree_param":{"num_deleted":"0","num_feature":"3","num_nodes":"11","size_leaf_vector":"1"}},{"base_weights":[-1.969422E-4,-1.5475442E0,8.5211563E-1,-1.8157937E-1,-6.0612327E-1,1.2075946E0,-1.8520024E-1,1.598716E-1,-1.803048E-1,-4.6833377E-2,1.4427988E-1],"categories":[],"categories_nodes":[],"categories_segments":[],"categories_sizes":[],"default_left":[0,0,0,0,0,0,0,0,0,0,0],"id":1,"left_children":[1,3,5,-1,7,9,-1,-1,-1,-1,-1],"loss_changes":[2.6938767E3,1.8211523E2,1.2683391E3,0E0,4.314202E2,4.5978564E2,0E0,0E0,0E0,0E0,0E0],"parents":[2147483647,0,0,1,1,2,2,4,4,5,5],"right_children":[2,4,6,-1,8,10,-1,-1,-1,-1,-1],"split_conditions":[2.8994405E-3,7.2149664E-1,7.7305645E-1,-1.8157937E-1,7.2151566E-1,7.201798E-1,-1.8520024E-1,1.598716E-1,-1.803048E-1,-4.6833377E-2,1.4427988E-1],"split_indices":[1,0,2,0,0,0,0,0,0,0,0],"split_type":[0,0,0,0,0,0,0,0,0,0,0],"sum_hessian":[2.0406364E3,7.245047E2,1.3161317E3,5.6311993E2,1.6138475E2,1.1637062E3,1.5242554E2,5.6665783E1,1.0471897E2,1.4309598E2,1.02061017E3],"tree_param":{"num_deleted":"0","num_feature":"3","num_nodes":"11","size_leaf_vector":"1"}},{"base_weights":[-6.1482086E-4,-1.2781166E0,8.8222563E-1,-1.7046602E-1,-5.8913606E-1,1.2581903E0,-1.7181973E-1,1.508724E-1,-1.04816414E-1,-2.0445442E-2,1.4601742E-1],"categories":[],"categories_nodes":[],"categories_segments":[],"categories_sizes":[],"default_left":[0,0,0,0,0,0,0,0,0,0,0],"id":2,"left_children":[1,3,5,-1,7,9,-1,-1,-1,-1,-1],"loss_changes":[2.2611929E3,2.3977759E2,1.1612698E3,0E0,3.0473782E2,3.0648425E2,0E0,0E0,0E0,0E0,0E0],"parents":[2147483647,0,0,1,1,2,2,4,4,5,5],"right_children":[2,4,6,-1,8,10,-1,-1,-1,-1,-1],"split_conditions":[3.4634527E-3,7.2090065E-1,7.2266906E-1,-1.7046602E-1,7.209236E-1,7.201798E-1,-1.7181973E-1,1.508724E-1,-1.04816414E-1,-2.0445442E-2,1.4601742E-1],"split_indices":[1,0,0,0,0,0,0,0,0,0,0],"split_type":[0,0,0,0,0,0,0,0,0,0,0],"sum_hessian":[2.0029055E3,8.1831976E2,1.1845858E3,5.045079E2,3.1381186E2,1.0354049E3,1.4918086E2,5.5926872E1,2.5788498E2,1.2563318E2,9.097717E2],"tree_param":{"num_deleted":"0","num_feature":"3","num_nodes":"11","size_leaf_vector":"1"}},{"base_weights":[-7.96665E-4,-1.1847669E0,8.148532E-1,-1.5944971E-1,-5.376598E-1,1.1658745E0,-1.6368966E-1,1.3979219E-1,-9.550593E-2,1.246775E-1,-1.7331016E-1],"categories":[],"categories_nodes":[],"categories_segments":[],"categories_sizes":[],"default_left":[0,0,0,0,0,0,0,0,0,0,0],"id":3,"left_children":[1,3,5,-1,7,9,-1,-1,-1,-1,-1],"loss_changes":[1.886546E3,2.1042017E2,9.973734E2,0E0,2.5214694E2,2.3959973E2,0E0,0E0,0E0,0E0,0E0],"parents":[2147483647,0,0,1,1,2,2,4,4,5,5],"right_children":[2,4,6,-1,8,10,-1,-1,-1,-1,-1],"split_conditions":[3.4634527E-3,7.2090065E-1,7.7305645E-1,-1.5944971E-1,7.209236E-1,7.2266906E-1,-1.6368966E-1,1.3979219E-1,-9.550593E-2,1.246775E-1,-1.7331016E-1],"split_indices":[1,0,2,0,0,0,0,0,0,0,0],"split_type":[0,0,0,0,0,0,0,0,0,0,0],"sum_hessian":[1.9515428E3,7.9585443E2,1.1556884E3,4.8640945E2,3.0944498E2,1.01140784E3,1.4428056E2,5.4476273E1,2.5496869E2,9.845036E2,2.690423E1],"tree_param":{"num_deleted":"0","num_feature":"3","num_nodes":"11","size_leaf_vector":"1"}},{"base_weights":[-1.281103E-3,-1.106924E0,7.5574964E-1,-1.506993E-1,-4.926872E-1,1.0796574E0,-1.541646E-1,1.30555E-1,-8.7327756E-2,1.15476035E-1,-1.6091745E-1],"categories":[],"categories_nodes":[],"categories_segments":[],"categories_sizes":[],"default_left":[0,0,0,0,0,0,0,0,0,0,0],"id":4,"left_children":[1,3,5,-1,7,9,-1,-1,-1,-1,-1],"loss_changes":[1.5843041E3,1.8829901E2,8.3774036E2,0E0,2.0981897E2,2.0082788E2,0E0,0E0,0E0,0E0,0E0],"parents":[2147483647,0,0,1,1,2,2,4,4,5,5],"right_children":[2,4,6,-1,8,10,-1,-1,-1,-1,-1],"split_conditions":[3.4634527E-3,7.2090065E-1,7.7305645E-1,-1.506993E-1,7.209236E-1,7.2266906E-1,-1.541646E-1,1.30555E-1,-8.7327756E-2,1.15476035E-1,-1.6091745E-1],"split_indices":[1,0,2,0,0,0,0,0,0,0,0],"split_type":[0,0,0,0,0,0,0,0,0,0,0],"sum_hessian":[1.8908239E3,7.682837E2,1.1225402E3,4.6437228E2,3.039114E2,9.842952E2,1.3824487E2,5.2661716E1,2.5124971E2,9.5810455E2,2.6190697E1],"tree_param":{"num_deleted":"0","num_feature":"3","num_nodes":"11","size_leaf_vector":"1"}},{"base_weights":[-1.7896878E-3,-1.0403911E0,7.0452964E-1,-1.4360534E-1,-4.527647E-1,1.0045803E0,-1.4646408E-1,1.4717606E-2,-1.5471628E-1,-2.755416E-2,1.1792123E-1],"categories":[],"categories_nodes":[],"categories_segments":[],"categories_sizes":[],"default_left":[0,0,0,0,0,0,0,0,0,0,0],"id":5,"left_children":[1,3,5,-1,7,9,-1,-1,-1,-1,-1],"loss_changes":[1.3384001E3,1.710564E2,7.082736E2,0E0,1.9630057E2,2.1372198E2,0E0,0E0,0E0,0E0,0E0],"parents":[2147483647,0,0,1,1,2,2,4,4,5,5],"right_children":[2,4,6,-1,8,10,-1,-1,-1,-1,-1],"split_conditions":[3.4634527E-3,7.2090065E-1,7.7305645E-1,-1.4360534E-1,7.2151566E-1,7.201798E-1,-1.4646408E-1,1.4717606E-2,-1.5471628E-1,-2.755416E-2,1.1792123E-1],"split_indices":[1,0,2,0,0,0,0,0,0,0,0],"split_type":[0,0,0,0,0,0,0,0,0,0,0],"sum_hessian":[1.8224677E3,7.375178E2,1.0849498E3,4.3988757E2,2.9763025E2,9.535824E2,1.3136745E2,1.9280275E2,1.0482749E2,1.1440091E2,8.391815E2],"tree_param":{"num_deleted":"0","num_feature":"3","num_nodes":"11","size_leaf_vector":"1"}},{"base_weights":[-2.354463E-3,-9.807203E-1,6.5948474E-1,-1.3775961E-1,-4.1628128E-1,9.4036216E-1,-1.4080194E-1,-1.4899634E-1,1.5481345E-2,-5.914941E-3,1.2006873E-1],"categories":[],"categories_nodes":[],"categories_segments":[],"categories_sizes":[],"default_left":[0,0,0,0,0,0,0,0,0,0,0],"id":6,"left_children":[1,3,5,-1,7,9,-1,-1,-1,-1,-1],"loss_changes":[1.1355906E3,1.5795007E2,6.088086E2,0E0,1.8025018E2,2.3986377E2,0E0,0E0,0E0,0E0,0E0],"parents":[2147483647,0,0,1,1,2,2,4,4,5,5],"right_children":[2,4,6,-1,8,10,-1,-1,-1,-1,-1],"split_conditions":[3.4634527E-3,7.2090065E-1,7.2266906E-1,-1.3775961E-1,1.8726315E-3,7.2069055E-1,-1.4080194E-1,-1.4899634E-1,1.5481345E-2,-5.914941E-3,1.2006873E-1],"split_indices":[1,0,0,0,1,0,0,0,0,0,0],"split_type":[0,0,0,0,0,0,0,0,0,0,0],"sum_hessian":[1.7517526E3,7.066554E2,1.0450972E3,4.1406906E2,2.925863E2,9.205786E2,1.2451855E2,1.01032326E2,1.9155397E2,1.9038255E2,7.301961E2],"tree_param":{"num_deleted":"0","num_feature":"3","num_nodes":"11","size_leaf_vector":"1"}},{"base_weights":[-2.7882634E-3,-9.2760724E-1,6.1987364E-1,-1.3287781E-1,-3.833953E-1,8.859071E-1,-1.3756795E-1,1.5888074E-2,-1.4424153E-1,-2.417611E-2,1.0537406E-1],"categories":[],"categories_nodes":[],"categories_segments":[],"categories_sizes":[],"default_left":[0,0,0,0,0,0,0,0,0,0,0],"id":7,"left_children":[1,3,5,-1,7,9,-1,-1,-1,-1,-1],"loss_changes":[9.674745E2,1.4707959E2,5.3426227E2,0E0,1.6577785E2,1.6804675E2,0E0,0E0,0E0,0E0,0E0],"parents":[2147483647,0,0,1,1,2,2,4,4,5,5],"right_children":[2,4,6,-1,8,10,-1,-1,-1,-1,-1],"split_conditions":[3.4634527E-3,7.2090065E-1,7.7305645E-1,-1.3287781E-1,7.2151566E-1,7.201798E-1,-1.3756795E-1,1.5888074E-2,-1.4424153E-1,-2.417611E-2,1.0537406E-1],"split_indices":[1,0,2,0,0,0,0,0,0,0,0],"split_type":[0,0,0,0,0,0,0,0,0,0,0],"sum_hessian":[1.6780835E3,6.7501556E2,1.0030679E3,3.8774445E2,2.8727112E2,8.855663E2,1.1750158E2,1.9054941E2,9.6721725E1,1.1466888E2,7.708974E2],"tree_param":{"num_deleted":"0","num_feature":"3","num_nodes":"11","size_leaf_vector":"1"}},{"base_weights":[-3.3741554E-3,-1.0076712E0,5.115935E-1,-1.3189912E0,-9.187117E-2,7.296823E-1,-1.3417951E0,-1.2752566E-1,-1.4893387E-1,1.6771875E-1,-1.3369031E-1,-2.4685971E-2,1.0202636E-1,-1.5592663E-1,-1.258202E-1],"categories":[],"categories_nodes":[],"categories_segments":[],"categories_sizes":[],"default_left":[0,0,0,0,0,0,0,0,0,0,0,0,0,0,0],"id":8,"left_children":[1,3,5,7,9,11,13,-1,-1,-1,-1,-1,-1,-1,-1],"loss_changes":[8.312663E2,1.5520728E2,4.3044464E2,1.1293335E0,3.0903882E2,2.7019302E2,7.807922E-2,0E0,0E0,0E0,0E0,0E0,0E0,0E0,0E0],"parents":[2147483647,0,0,1,1,2,2,3,3,4,4,5,5,6,6],"right_children":[2,4,6,8,10,12,14,-1,-1,-1,-1,-1,-1,-1,-1],"split_conditions":[2.8994405E-3,7.2149664E-1,7.2266906E-1,7.2090065E-1,7.2151566E-1,7.2069055E-1,7.7305645E-1,-1.2752566E-1,-1.4893387E-1,1.6771875E-1,-1.3369031E-1,-2.4685971E-2,1.0202636E-1,-1.5592663E-1,-1.258202E-1],"split_indices":[1,0,0,0,0,0,2,0,0,0,0,0,0,0,0],"split_type":[0,0,0,0,0,0,0,0,0,0,0,0,0,0,0],"sum_hessian":[1.605307E3,5.438081E2,1.0614989E3,4.0551562E2,1.3829253E2,9.5028485E2,1.1121401E2,3.2942563E2,7.608998E1,5.6981182E1,8.131133E1,2.179572E2,7.3232764E2,2.5978018E1,8.523599E1],"tree_param":{"num_deleted":"0","num_feature":"3","num_nodes":"15","size_leaf_vector":"1"}},{"base_weights":[-4.0249284E-3,-8.5532933E-1,5.564325E-1,-1.2574174E-1,-3.4951407E-1,7.949585E-1,-1.3140488E0,1.1678727E-1,-6.8119295E-2,8.671136E-2,-1.4709274E-1,-1.5391736E-1,-1.22520626E-1],"categories":[],"categories_nodes":[],"categories_segments":[],"categories_sizes":[],"default_left":[0,0,0,0,0,0,0,0,0,0,0,0,0],"id":9,"left_children":[1,3,5,-1,7,9,11,-1,-1,-1,-1,-1,-1],"loss_changes":[7.312392E2,1.2330466E2,4.1337616E2,0E0,1.3710751E2,1.3538763E2,2.1226501E-1,0E0,0E0,0E0,0E0,0E0,0E0],"parents":[2147483647,0,0,1,1,2,2,4,4,5,5,6,6],"right_children":[2,4,6,-1,8,10,12,-1,-1,-1,-1,-1,-1],"split_conditions":[3.4634527E-3,7.2090065E-1,7.7305645E-1,-1.2574174E-1,7.209236E-1,7.2266906E-1,7.2266906E-1,1.1678727E-1,-6.8119295E-2,8.671136E-2,-1.4709274E-1,-1.5391736E-1,-1.22520626E-1],"split_indices":[1,0,2,0,0,0,0,0,0,0,0,0,0],"split_type":[0,0,0,0,0,0,0,0,0,0,0,0,0],"sum_hessian":[1.5306136E3,6.074317E2,9.2318195E2,3.375873E2,2.698444E2,8.1928125E2,1.0390072E2,4.795151E1,2.2189288E2,7.9459534E2,2.4685877E1,2.4781141E1,7.9119576E1],"tree_param":{"num_deleted":"0","num_feature":"3","num_nodes":"13","size_leaf_vector":"1"}},{"base_weights":[-4.6259374E-3,-7.579261E-1,5.7414496E-1,-1.2790238E0,-2.0029074E-1,8.21222E-1,-1.2743895E-1,-1.2266835E-1,-2.2506073E-1,3.0805215E-2,-1.4678678E-1,8.955176E-2,-1.3973309E-1],"categories":[],"categories_nodes":[],"categories_segments":[],"categories_sizes":[],"default_left":[0,0,0,0,0,0,0,0,0,0,0,0,0],"id":10,"left_children":[1,3,5,7,9,11,-1,-1,-1,-1,-1,-1,-1],"loss_changes":[6.376952E2,1.8440909E2,3.788287E2,1.3935669E1,1.9902795E2,1.216142E2,0E0,0E0,0E0,0E0,0E0,0E0,0E0],"parents":[2147483647,0,0,1,1,2,2,3,3,4,4,5,5],"right_children":[2,4,6,8,10,12,-1,-1,-1,-1,-1,-1,-1],"split_conditions":[3.904533E-3,7.2090065E-1,7.7305645E-1,3.4634527E-3,7.2151566E-1,7.2266906E-1,-1.2743895E-1,-1.2266835E-1,-2.2506073E-1,3.0805215E-2,-1.4678678E-1,8.955176E-2,-1.3973309E-1],"split_indices":[1,0,2,1,0,0,0,0,0,0,0,0,0],"split_type":[0,0,0,0,0,0,0,0,0,0,0,0,0],"sum_hessian":[1.4606451E3,6.345005E2,8.2614465E2,3.273271E2,3.071734E2,7.2923065E2,9.6913994E1,3.1274188E2,1.4585182E1,2.1978777E2,8.7385635E1,7.061783E2,2.3052355E1],"tree_param":{"num_deleted":"0","num_feature":"3","num_nodes":"13","size_leaf_vector":"1"}},{"base_weights":[-5.5810907E-3,-7.197275E-1,5.42497E-1,-1.2457378E0,-1.8590946E-1,7.737182E-1,-1.2417974E-1,-1.20009504E-1,-2.0012462E-1,2.7816007E-2,-1.4223419E-1,1.1180153E-1,2.851609E-2],"categories":[],"categories_nodes":[],"categories_segments":[],"categories_sizes":[],"default_left":[0,0,0,0,0,0,0,0,0,0,0,0,0],"id":11,"left_children":[1,3,5,7,9,11,-1,-1,-1,-1,-1,-1,-1],"loss_changes":[5.458261E2,1.697944E2,3.2647693E2,8.1094055E0,1.7351093E2,1.172767E2,0E0,0E0,0E0,0E0,0E0,0E0,0E0],"parents":[2147483647,0,0,1,1,2,2,3,3,4,4,5,5],"right_children":[2,4,6,8,10,12,-1,-1,-1,-1,-1,-1,-1],"split_conditions":[3.904533E-3,7.2090065E-1,7.7305645E-1,3.4634527E-3,7.2151566E-1,7.418649E-1,-1.2417974E-1,-1.20009504E-1,-2.0012462E-1,2.7816007E-2,-1.4223419E-1,1.1180153E-1,2.851609E-2],"split_indices":[1,0,2,1,0,2,0,0,0,0,0,0,0],"split_type":[0,0,0,0,0,0,0,0,0,0,0,0,0],"sum_hessian":[1.3925219E3,6.045193E2,7.8800256E2,3.0381467E2,3.0070462E2,6.981038E2,8.989874E1,2.889469E2,1.4867778E1,2.1920541E2,8.1499214E1,4.08756E2,2.893478E2],"tree_param":{"num_deleted":"0","num_feature":"3","num_nodes":"13","size_leaf_vector":"1"}},{"base_weights":[-6.240371E-3,-1.2175794E0,2.888031E-1,-1.1684265E-1,-1.3697526E-1,4.5267743E-1,-1.2150388E-1,-4.6051845E-2,7.468019E-2],"categories":[],"categories_nodes":[],"categories_segments":[],"categories_sizes":[],"default_left":[0,0,0,0,0,0,0,0,0],"id":12,"left_children":[1,3,5,-1,-1,7,-1,-1,-1],"loss_changes":[4.763758E2,3.522644E-1,2.6469873E2,0E0,0E0,2.6014307E2,0E0,0E0,0E0],"parents":[2147483647,0,0,1,1,2,2,5,5],"right_children":[2,4,6,-1,-1,8,-1,-1,-1],"split_conditions":[7.2765845E-1,7.2090065E-1,7.2266906E-1,-1.1684265E-1,-1.3697526E-1,7.2069055E-1,-1.2150388E-1,-4.6051845E-2,7.468019E-2],"split_indices":[2,0,0,0,0,0,0,0,0],"split_type":[0,0,0,0,0,0,0,0,0],"sum_hessian":[1.3309174E3,2.6006406E2,1.0708533E3,2.0313004E2,5.6934017E1,9.6625867E2,1.0459465E2,2.3525977E2,7.309989E2],"tree_param":{"num_deleted":"0","num_feature":"3","num_nodes":"9","size_leaf_vector":"1"}},{"base_weights":[-6.7621986E-3,-6.798742E-1,5.022899E-1,-1.2033701E0,-1.9807768E-1,7.0853233E-1,-1.2070024E-1,-1.1614102E-1,-1.7919476E-1,2.2228418E-2,-1.3963486E-1,1.060216E-1,2.262494E-2],"categories":[],"categories_nodes":[],"categories_segments":[],"categories_sizes":[],"default_left":[0,0,0,0,0,0,0,0,0,0,0,0,0],"id":13,"left_children":[1,3,5,7,9,11,-1,-1,-1,-1,-1,-1,-1],"loss_changes":[4.3893057E2,1.3888637E2,2.579864E2,4.4427795E0,1.4559938E2,1.1025983E2,0E0,0E0,0E0,0E0,0E0,0E0,0E0],"parents":[2147483647,0,0,1,1,2,2,3,3,4,4,5,5],"right_children":[2,4,6,8,10,12,-1,-1,-1,-1,-1,-1,-1],"split_conditions":[3.904533E-3,7.2090065E-1,7.7305645E-1,3.4634527E-3,7.2151566E-1,7.418649E-1,-1.2070024E-1,-1.1614102E-1,-1.7919476E-1,2.2228418E-2,-1.3963486E-1,1.060216E-1,2.262494E-2],"split_indices":[1,0,2,1,0,2,0,0,0,0,0,0,0],"split_type":[0,0,0,0,0,0,0,0,0,0,0,0,0],"sum_hessian":[1.278995E3,5.50604E2,7.2839105E2,2.6316473E2,2.874393E2,6.5048883E2,7.79022E1,2.4842754E2,1.4737197E1,2.1339375E2,7.404553E1,3.754847E2,2.7500412E2],"tree_param":{"num_deleted":"0","num_feature":"3","num_nodes":"13","size_leaf_vector":"1"}},{"base_weights":[-7.361225E-3,-1.1839707E0,2.5691602E-1,-1.13264464E-1,-1.3273649E-1,4.0065384E-1,-1.1811458E-1,-4.4347234E-2,6.800374E-2],"categories":[],"categories_nodes":[],"categories_segments":[],"categories_sizes":[],"default_left":[0,0,0,0,0,0,0,0,0],"id":14,"left_children":[1,3,5,-1,-1,7,-1,-1,-1],"loss_changes":[3.8080453E2,1.4968872E-1,2.0718776E2,0E0,0E0,2.1489348E2,0E0,0E0,0E0],"parents":[2147483647,0,0,1,1,2,2,5,5],"right_children":[2,4,6,-1,-1,8,-1,-1,-1],"split_conditions":[7.2765845E-1,7.2090065E-1,7.2266906E-1,-1.13264464E-1,-1.3273649E-1,7.2069055E-1,-1.1811458E-1,-4.4347234E-2,6.800374E-2],"split_indices":[2,0,0,0,0,0,0,0,0],"split_type":[0,0,0,0,0,0,0,0,0],"sum_hessian":[1.2226663E3,2.236145E2,9.990517E2,1.7122546E2,5.238905E1,9.0892395E2,9.0127785E1,2.2587637E2,6.8304755E2],"tree_param":{"num_deleted":"0","num_feature":"3","num_nodes":"9","size_leaf_vector":"1"}},{"base_weights":[-7.818943E-3,-6.451249E-1,4.6606132E-1,-1.1704432E0,-2.0877019E-1,1.0095334E0,-1.04219325E-1,-1.1314036E-1,-1.6394193E-1,1.7459376E-2,-1.3791136E-1,-2.0393896E-1,1.0609014E-1,-2.157629E-1,2.7467987E-2],"categories":[],"categories_nodes":[],"categories_segments":[],"categories_sizes":[],"default_left":[0,0,0,0,0,0,0,0,0,0,0,0,0,0,0],"id":15,"left_children":[1,3,5,7,9,11,13,-1,-1,-1,-1,-1,-1,-1,-1],"loss_changes":[3.5585352E2,1.14940186E2,2.0955882E2,2.3156433E0,1.2394172E2,5.6373444E1,2.5787012E2,0E0,0E0,0E0,0E0,0E0,0E0,0E0,0E0],"parents":[2147483647,0,0,1,1,2,2,3,3,4,4,5,5,6,6],"right_children":[2,4,6,8,10,12,14,-1,-1,-1,-1,-1,-1,-1,-1],"split_conditions":[3.904533E-3,7.2090065E-1,7.418649E-1,3.4634527E-3,7.2151566E-1,7.176382E-1,7.2069055E-1,-1.1314036E-1,-1.6394193E-1,1.7459376E-2,-1.3791136E-1,-2.0393896E-1,1.0609014E-1,-2.157629E-1,2.7467987E-2],"split_indices":[1,0,2,1,0,0,0,0,0,0,0,0,0,0,0],"split_type":[0,0,0,0,0,0,0,0,0,0,0,0,0,0,0],"sum_hessian":[1.176301E3,5.0149524E2,6.7480585E2,2.2678784E2,2.747074E2,3.4512997E2,3.2967587E2,2.1251007E2,1.4277762E1,2.0756659E2,6.71408E1,5.077138E0,3.4005283E2,5.0624813E1,2.7905106E2],"tree_param":{"num_deleted":"0","num_feature":"3","num_nodes":"15","size_leaf_vector":"1"}},{"base_weights":[-8.199033E-3,-1.1571751E-1,2.2729985E-1,3.628567E-1,-1.16208516E-1,-3.76317E-2,6.1473776E-2],"categories":[],"categories_nodes":[],"categories_segments":[],"categories_sizes":[],"default_left":[0,0,0,0,0,0,0],"id":16,"left_children":[1,-1,3,5,-1,-1,-1],"loss_changes":[3.06274E2,0E0,1.7734846E2,1.5972644E2,0E0,0E0,0E0],"parents":[2147483647,0,0,2,2,3,3],"right_children":[2,-1,4,6,-1,-1,-1],"split_conditions":[7.2765845E-1,-1.1571751E-1,7.2266906E-1,7.2069055E-1,-1.16208516E-1,-3.76317E-2,6.1473776E-2],"split_indices":[2,0,0,0,0,0,0],"split_type":[0,0,0,0,0,0,0],"sum_hessian":[1.1299336E3,1.9153575E2,9.383979E2,8.5565393E2,8.274395E1,2.1734276E2,6.383112E2],"tree_param":{"num_deleted":"0","num_feature":"3","num_nodes":"7","size_leaf_vector":"1"}},{"base_weights":[-8.536133E-3,-6.141695E-1,4.3085006E-1,-1.1446316E0,-2.1940815E-1,6.106142E-1,-1.1789396E-1,-1.1076375E-1,-1.5261541E-1,1.31708E-2,-1.366702E-1,9.6483834E-2,1.6141763E-2],"categories":[],"categories_nodes":[],"categories_segments":[],"categories_sizes":[],"default_left":[0,0,0,0,0,0,0,0,0,0,0,0,0],"id":17,"left_children":[1,3,5,7,9,11,-1,-1,-1,-1,-1,-1,-1],"loss_changes":[2.9017795E2,9.575827E1,1.8360297E2,1.067215E0,1.065691E2,9.0405716E1,0E0,0E0,0E0,0E0,0E0,0E0,0E0],"parents":[2147483647,0,0,1,1,2,2,3,3,4,4,5,5],"right_children":[2,4,6,8,10,12,-1,-1,-1,-1,-1,-1,-1],"split_conditions":[3.904533E-3,7.2090065E-1,7.7305645E-1,3.4634527E-3,7.2151566E-1,7.418649E-1,-1.1789396E-1,-1.1076375E-1,-1.5261541E-1,1.31708E-2,-1.366702E-1,9.6483834E-2,1.6141763E-2],"split_indices":[1,0,2,1,0,2,0,0,0,0,0,0,0],"split_type":[0,0,0,0,0,0,0,0,0,0,0,0,0],"sum_hessian":[1.0884618E3,4.5748456E2,6.3097723E2,1.9438258E2,2.6310196E2,5.681527E2,6.2824535E1,1.8075865E2,1.3623936E1,2.0212816E2,6.0973804E1,3.1701523E2,2.5113748E2],"tree_param":{"num_deleted":"0","num_feature":"3","num_nodes":"13","size_leaf_vector":"1"}},{"base_weights":[-9.027408E-3,-1.1377051E-1,2.0187797E-1,3.2078692E-1,-1.1396378E-1,-3.688528E-2,5.608694E-2],"categories":[],"categories_nodes":[],"categories_segments":[],"categories_sizes":[],"default_left":[0,0,0,0,0,0,0],"id":18,"left_children":[1,-1,3,5,-1,-1,-1],"loss_changes":[2.4867664E2,0E0,1.4077817E2,1.3420969E2,0E0,0E0,0E0],"parents":[2147483647,0,0,2,2,3,3],"right_children":[2,-1,4,6,-1,-1,-1],"split_conditions":[7.2765845E-1,-1.1377051E-1,7.2266906E-1,7.2069055E-1,-1.1396378E-1,-3.688528E-2,5.608694E-2],"split_indices":[2,0,0,0,0,0,0],"split_type":[0,0,0,0,0,0,0],"sum_hessian":[1.042701E3,1.634721E2,8.792289E2,8.0834033E2,7.08886E1,2.0859949E2,5.9974084E2],"tree_param":{"num_deleted":"0","num_feature":"3","num_nodes":"7","size_leaf_vector":"1"}},{"base_weights":[-9.285203E-3,-5.855633E-1,4.012473E-1,-9.4181716E-1,2.551208E-3,9.217431E-1,-1.1610998E-1,-7.3279954E-2,-1.676024E-1,7.4159406E-2,-1.3567868E-1,9.6911155E-2,-2.4496916E-1,-1.9174282E-1,2.5148425E-2],"categories":[],"categories_nodes":[],"categories_segments":[],"categories_sizes":[],"default_left":[0,0,0,0,0,0,0,0,0,0,0,0,0,0,0],"id":19,"left_children":[1,3,5,7,9,11,13,-1,-1,-1,-1,-1,-1,-1,-1],"loss_changes":[2.3858463E2,8.790291E1,1.5869814E2,3.8867325E1,1.6100365E2,4.9276398E1,1.9664445E2,0E0,0E0,0E0,0E0,0E0,0E0,0E0,0E0],"parents":[2147483647,0,0,1,1,2,2,3,3,4,4,5,5,6,6],"right_children":[2,4,6,8,10,12,14,-1,-1,-1,-1,-1,-1,-1,-1],"split_conditions":[3.904533E-3,7.213882E-1,7.418649E-1,7.209236E-1,7.2151566E-1,5.4836445E-3,7.2069055E-1,-7.3279954E-2,-1.676024E-1,7.4159406E-2,-1.3567868E-1,9.6911155E-2,-2.4496916E-1,-1.9174282E-1,2.5148425E-2],"split_indices":[1,0,2,0,0,1,0,0,0,0,0,0,0,0,0],"split_type":[0,0,0,0,0,0,0,0,0,0,0,0,0,0,0],"sum_hessian":[1.0064765E3,4.1853653E2,5.8793994E2,2.602731E2,1.5826341E2,2.9269135E2,2.952486E2,2.0415215E2,5.6120964E1,1.0281795E2,5.544547E1,2.893387E2,3.3526382E0,4.932511E1,2.459235E2],"tree_param":{"num_deleted":"0","num_feature":"3","num_nodes":"15","size_leaf_vector":"1"}},{"base_weights":[-9.294409E-3,-5.522338E-1,3.7449127E-1,-1.1160686E0,-1.8755138E-1,5.3790104E-1,-1.1631166E-1,-1.0817032E-1,-1.4028381E-1,1.1997125E-2,-1.3297497E-1,9.6404985E-2,1.991078E-2],"categories":[],"categories_nodes":[],"categories_segments":[],"categories_sizes":[],"default_left":[0,0,0,0,0,0,0,0,0,0,0,0,0],"id":20,"left_children":[1,3,5,7,9,11,-1,-1,-1,-1,-1,-1,-1],"loss_changes":[2.0241426E2,8.2508286E1,1.4362563E2,3.765869E-2,8.638656E1,7.4182205E1,0E0,0E0,0E0,0E0,0E0,0E0,0E0],"parents":[2147483647,0,0,1,1,2,2,3,3,4,4,5,5],"right_children":[2,4,6,8,10,12,-1,-1,-1,-1,-1,-1,-1],"split_conditions":[3.904533E-3,7.2090065E-1,7.7305645E-1,3.4634527E-3,7.2151566E-1,7.3937726E-1,-1.1631166E-1,-1.0817032E-1,-1.4028381E-1,1.1997125E-2,-1.3297497E-1,9.6404985E-2,1.991078E-2],"split_indices":[1,0,2,1,0,2,0,0,0,0,0,0,0],"split_type":[0,0,0,0,0,0,0,0,0,0,0,0,0],"sum_hessian":[9.694139E2,4.0128265E2,5.681312E2,1.567977E2,2.4448497E2,5.141409E2,5.3990322E1,1.4427972E2,1.2517968E1,1.9332861E2,5.1156353E1,2.268959E2,2.8724503E2],"tree_param":{"num_deleted":"0","num_feature":"3","num_nodes":"13","size_leaf_vector":"1"}},{"base_weights":[-9.743756E-3,-1.11459486E-1,1.7172909E-1,2.795167E-1,-1.1257537E-1,-3.582866E-2,5.0489902E-2],"categories":[],"categories_nodes":[],"categories_segments":[],"categories_sizes":[],"default_left":[0,0,0,0,0,0,0],"id":21,"left_children":[1,-1,3,5,-1,-1,-1],"loss_changes":[1.8711693E2,0E0,1.1242528E2,1.0669188E2,0E0,0E0,0E0],"parents":[2147483647,0,0,2,2,3,3],"right_children":[2,-1,4,6,-1,-1,-1],"split_conditions":[7.2765845E-1,-1.11459486E-1,7.2266906E-1,7.2069055E-1,-1.1257537E-1,-3.582866E-2,5.0489902E-2],"split_indices":[2,0,0,0,0,0,0],"split_type":[0,0,0,0,0,0,0],"sum_hessian":[9.312947E2,1.3066037E2,8.006343E2,7.399481E2,6.068618E1,1.930504E2,5.468977E2],"tree_param":{"num_deleted":"0","num_feature":"3","num_nodes":"7","size_leaf_vector":"1"}},{"base_weights":[-9.924992E-3,-1.1411124E-1,1.5694173E-1,2.4386768E-1,-1.11716285E-1,-3.8513087E-2,4.9571704E-2],"categories":[],"categories_nodes":[],"categories_segments":[],"categories_sizes":[],"default_left":[0,0,0,0,0,0,0],"id":22,"left_children":[1,-1,3,5,-1,-1,-1],"loss_changes":[1.7045491E2,0E0,8.7435104E1,1.17029755E2,0E0,0E0,0E0],"parents":[2147483647,0,0,2,2,3,3],"right_children":[2,-1,4,6,-1,-1,-1],"split_conditions":[1.8726315E-3,-1.1411124E-1,7.2266906E-1,7.2069055E-1,-1.11716285E-1,-3.8513087E-2,4.9571704E-2],"split_indices":[1,0,0,0,0,0,0],"split_type":[0,0,0,0,0,0,0],"sum_hessian":[9.0108777E2,1.1508559E2,7.8600214E2,7.365589E2,4.9443237E1,2.1044337E2,5.2611554E2],"tree_param":{"num_deleted":"0","num_feature":"3","num_nodes":"7","size_leaf_vector":"1"}},{"base_weights":[-1.0006123E-2,-5.309595E-1,3.48005E-1,-8.761691E-1,-8.398766E-3,8.460044E-1,-1.2819402E-1,-6.250777E-2,-1.6516583E-1,6.3454255E-2,-1.3390586E-1,-1.8926243E-1,9.104105E-2,-1.7401297E-1,2.2666855E-2],"categories":[],"categories_nodes":[],"categories_segments":[],"categories_sizes":[],"default_left":[0,0,0,0,0,0,0,0,0,0,0,0,0,0,0],"id":23,"left_children":[1,3,5,7,9,11,13,-1,-1,-1,-1,-1,-1,-1,-1],"loss_changes":[1.632054E2,6.428726E1,1.2310645E2,4.0757828E1,1.23016495E2,4.6464203E1,1.5255084E2,0E0,0E0,0E0,0E0,0E0,0E0,0E0,0E0],"parents":[2147483647,0,0,1,1,2,2,3,3,4,4,5,5,6,6],"right_children":[2,4,6,8,10,12,14,-1,-1,-1,-1,-1,-1,-1,-1],"split_conditions":[3.904533E-3,7.213882E-1,7.418649E-1,7.209236E-1,7.2151566E-1,7.176382E-1,7.2069055E-1,-6.250777E-2,-1.6516583E-1,6.3454255E-2,-1.3390586E-1,-1.8926243E-1,9.104105E-2,-1.7401297E-1,2.2666855E-2],"split_indices":[1,0,2,0,0,0,0,0,0,0,0,0,0,0,0],"split_type":[0,0,0,0,0,0,0,0,0,0,0,0,0,0,0],"sum_hessian":[8.730719E2,3.5541425E2,5.1765765E2,2.1361864E2,1.4179561E2,2.5265721E2,2.6500043E2,1.6273395E2,5.0884693E1,9.595548E1,4.5840134E1,5.153139E0,2.4750406E2,4.7108784E1,2.1789165E2],"tree_param":{"num_deleted":"0","num_feature":"3","num_nodes":"15","size_leaf_vector":"1"}},{"base_weights":[-1.0027693E-2,-1.1222055E-1,1.3901858E-1,2.1766578E-1,-1.2389891E0,-4.724573E-2,3.8689792E-2,-2.3043929E-1,-1.1448648E-1],"categories":[],"categories_nodes":[],"categories_segments":[],"categories_sizes":[],"default_left":[0,0,0,0,0,0,0,0,0],"id":24,"left_children":[1,-1,3,5,7,-1,-1,-1,-1],"loss_changes":[1.3987329E2,0E0,8.091724E1,8.2498955E1,1.4057808E0,0E0,0E0,0E0,0E0],"parents":[2147483647,0,0,2,2,3,3,4,4],"right_children":[2,-1,4,6,8,-1,-1,-1,-1],"split_conditions":[1.8726315E-3,-1.1222055E-1,1.0386464E-2,7.201798E-1,7.6904255E-1,-4.724573E-2,3.8689792E-2,-2.3043929E-1,-1.1448648E-1],"split_indices":[1,0,1,0,2,0,0,0,0],"split_type":[0,0,0,0,0,0,0,0,0],"sum_hessian":[8.418587E2,9.87158E1,7.431429E2,7.03816E2,3.9326927E1,1.3824907E2,5.655669E2,1.2861714E0,3.8040756E1],"tree_param":{"num_deleted":"0","num_feature":"3","num_nodes":"9","size_leaf_vector":"1"}},{"base_weights":[-1.0448963E-2,-5.0091356E-1,3.224685E-1,-1.0919515E-1,-1.917509E-1,9.011111E-1,-5.735776E-2,8.298694E-3,-1.3276455E-1,-1.6579096E-1,9.703993E-2,-1.7258234E-1,2.863133E-2],"categories":[],"categories_nodes":[],"categories_segments":[],"categories_sizes":[],"default_left":[0,0,0,0,0,0,0,0,0,0,0,0,0],"id":25,"left_children":[1,3,5,-1,7,9,11,-1,-1,-1,-1,-1,-1],"loss_changes":[1.3404103E2,6.0439133E1,1.07527855E2,0E0,6.84952E1,3.597972E1,1.7031468E2,0E0,0E0,0E0,0E0,0E0,0E0],"parents":[2147483647,0,0,1,1,2,2,4,4,5,5,6,6],"right_children":[2,4,6,-1,8,10,12,-1,-1,-1,-1,-1,-1],"split_conditions":[3.904533E-3,7.2090065E-1,7.3937726E-1,-1.0919515E-1,7.2151566E-1,7.176382E-1,7.2069055E-1,8.298694E-3,-1.3276455E-1,-1.6579096E-1,9.703993E-2,-1.7258234E-1,2.863133E-2],"split_indices":[1,0,2,0,0,0,0,0,0,0,0,0,0],"split_type":[0,0,0,0,0,0,0,0,0,0,0,0,0],"sum_hessian":[8.1891693E2,3.3090805E2,4.8800888E2,1.1277667E2,2.1813136E2,1.9284642E2,2.9516245E2,1.7639403E2,4.173733E1,4.4794426E0,1.8836699E2,4.972656E1,2.454359E2],"tree_param":{"num_deleted":"0","num_feature":"3","num_nodes":"13","size_leaf_vector":"1"}},{"base_weights":[-1.0736911E-2,-1.0818481E-1,1.2813643E-1,2.219483E-1,-1.1067577E-1,-2.1414582E-2,4.4962104E-2],"categories":[],"categories_nodes":[],"categories_segments":[],"categories_sizes":[],"default_left":[0,0,0,0,0,0,0],"id":26,"left_children":[1,-1,3,5,-1,-1,-1],"loss_changes":[1.1762226E2,0E0,8.134571E1,6.477799E1,0E0,0E0,0E0],"parents":[2147483647,0,0,2,2,3,3],"right_children":[2,-1,4,6,-1,-1,-1],"split_conditions":[7.2765845E-1,-1.0818481E-1,7.2266906E-1,3.904533E-3,-1.1067577E-1,-2.1414582E-2,4.4962104E-2],"split_indices":[2,0,0,1,0,0,0],"split_type":[0,0,0,0,0,0,0],"sum_hessian":[7.8881244E2,8.975491E1,6.9905756E2,6.504637E2,4.8593857E1,2.2313013E2,4.2733356E2],"tree_param":{"num_deleted":"0","num_feature":"3","num_nodes":"7","size_leaf_vector":"1"}},{"base_weights":[-1.0744354E-2,-1.1078807E-1,1.14577726E-1,1.3303102E0,2.3957463E-2,-6.922417E-2,1.3893631E-1,-1.2693219E-1,2.0013502E-2],"categories":[],"categories_nodes":[],"categories_segments":[],"categories_sizes":[],"default_left":[0,0,0,0,0,0,0,0,0],"id":27,"left_children":[1,-1,3,5,7,-1,-1,-1,-1],"loss_changes":[1.05590385E2,0E0,7.59089E1,6.6706467E0,1.4664725E2,0E0,0E0,0E0,0E0],"parents":[2147483647,0,0,2,2,3,3,4,4],"right_children":[2,-1,4,6,8,-1,-1,-1,-1],"split_conditions":[1.8726315E-3,-1.1078807E-1,1.8845502E-3,7.214652E-1,2.8994405E-3,-6.922417E-2,1.3893631E-1,-1.2693219E-1,2.0013502E-2],"split_indices":[1,0,1,0,1,0,0,0,0],"split_type":[0,0,0,0,0,0,0,0,0],"sum_hessian":[7.660325E2,7.7727165E1,6.883053E2,4.679802E1,6.415073E2,1.0234268E0,4.5774593E1,7.6168304E1,5.65339E2],"tree_param":{"num_deleted":"0","num_feature":"3","num_nodes":"9","size_leaf_vector":"1"}},{"base_weights":[-1.0841962E-2,-1.0974258E-1,1.0484381E-1,1.8463226E-1,-1.1699388E-1,-3.1975634E-2,3.8163986E-2],"categories":[],"categories_nodes":[],"categories_segments":[],"categories_sizes":[],"default_left":[0,0,0,0,0,0,0],"id":28,"left_children":[1,-1,3,5,-1,-1,-1],"loss_changes":[9.4027626E1,0E0,6.8986916E1,6.343611E1,0E0,0E0,0E0],"parents":[2147483647,0,0,2,2,3,3],"right_children":[2,-1,4,6,-1,-1,-1],"split_conditions":[1.8726315E-3,-1.0974258E-1,7.7305645E-1,7.2069055E-1,-1.1699388E-1,-3.1975634E-2,3.8163986E-2],"split_indices":[1,0,2,0,0,0,0],"split_type":[0,0,0,0,0,0,0],"sum_hessian":[7.461031E2,7.097557E1,6.751275E2,6.361652E2,3.896232E1,1.7851057E2,4.5765463E2],"tree_param":{"num_deleted":"0","num_feature":"3","num_nodes":"7","size_leaf_vector":"1"}},{"base_weights":[-1.0807506E-2,-1.0594024E-1,1.0038972E-1,1.8460639E-1,-1.10038735E-1,1.2521087E-1,1.0146168E-2],"categories":[],"categories_nodes":[],"categories_segments":[],"categories_sizes":[],"default_left":[0,0,0,0,0,0,0],"id":29,"left_children":[1,-1,3,5,-1,-1,-1],"loss_changes":[8.506431E1,0E0,6.691334E1,5.4662727E1,0E0,0E0,0E0],"parents":[2147483647,0,0,2,2,3,3],"right_children":[2,-1,4,6,-1,-1,-1],"split_conditions":[7.2765845E-1,-1.0594024E-1,7.2266906E-1,7.277238E-1,-1.10038735E-1,1.2521087E-1,1.0146168E-2],"split_indices":[2,0,0,2,0,0,0],"split_type":[0,0,0,0,0,0,0],"sum_hessian":[7.2762225E2,6.894457E1,6.586777E2,6.162997E2,4.237801E1,4.351734E1,5.7278235E2],"tree_param":{"num_deleted":"0","num_feature":"3","num_nodes":"7","size_leaf_vector":"1"}},{"base_weights":[-1.0545211E-2,-4.4895837E-1,2.664093E-1,-1.084345E-1,-1.8241507E-1,8.3832383E-1,-1.0280582E-1,1.0001584E-1,-4.5370977E-2,-1.547495E-1,9.1066636E-2,-1.6505001E-1,2.434445E-2],"categories":[],"categories_nodes":[],"categories_segments":[],"categories_sizes":[],"default_left":[0,0,0,0,0,0,0,0,0,0,0,0,0],"id":30,"left_children":[1,3,5,-1,7,9,11,-1,-1,-1,-1,-1,-1],"loss_changes":[8.6848206E1,4.6698616E1,9.265342E1,0E0,6.342425E1,3.1111137E1,1.4363823E2,0E0,0E0,0E0,0E0,0E0,0E0],"parents":[2147483647,0,0,1,1,2,2,4,4,5,5,6,6],"right_children":[2,4,6,-1,8,10,12,-1,-1,-1,-1,-1,-1],"split_conditions":[3.904533E-3,7.2090065E-1,7.3937726E-1,-1.084345E-1,7.209236E-1,7.176382E-1,7.2069055E-1,1.0001584E-1,-4.5370977E-2,-1.547495E-1,9.1066636E-2,-1.6505001E-1,2.434445E-2],"split_indices":[1,0,2,0,0,0,0,0,0,0,0,0,0],"split_type":[0,0,0,0,0,0,0,0,0,0,0,0,0],"sum_hessian":[7.1328296E2,2.7590698E2,4.3737595E2,8.063083E1,1.9527615E2,1.7108878E2,2.6628717E2,3.593759E1,1.5933856E2,4.4349594E0,1.6665381E2,4.7993893E1,2.1829329E2],"tree_param":{"num_deleted":"0","num_feature":"3","num_nodes":"13","size_leaf_vector":"1"}},{"base_weights":[-1.0170586E-2,-4.1929325E-1,2.4835366E-1,-1.0760019E-1,-1.651676E-1,8.037569E-1,-9.524469E-2,8.474572E-3,-1.3263161E-1,-1.4399926E-1,8.750447E-2,-1.5610065E-1,2.2188673E-2],"categories":[],"categories_nodes":[],"categories_segments":[],"categories_sizes":[],"default_left":[0,0,0,0,0,0,0,0,0,0,0,0,0],"id":31,"left_children":[1,3,5,-1,7,9,11,-1,-1,-1,-1,-1,-1],"loss_changes":[7.311916E1,4.4494465E1,8.092431E1,0E0,5.6460155E1,2.717633E1,1.2242511E2,0E0,0E0,0E0,0E0,0E0,0E0],"parents":[2147483647,0,0,1,1,2,2,4,4,5,5,6,6],"right_children":[2,4,6,-1,8,10,12,-1,-1,-1,-1,-1,-1],"split_conditions":[3.904533E-3,7.2090065E-1,7.3937726E-1,-1.0760019E-1,7.2151566E-1,7.176382E-1,7.2069055E-1,8.474572E-3,-1.3263161E-1,-1.4399926E-1,8.750447E-2,-1.5610065E-1,2.2188673E-2],"split_indices":[1,0,2,0,0,0,0,0,0,0,0,0,0],"split_type":[0,0,0,0,0,0,0,0,0,0,0,0,0],"sum_hessian":[6.8933124E2,2.6668E2,4.2265125E2,7.350222E1,1.9317775E2,1.6102542E2,2.6162582E2,1.5972685E2,3.34509E1,4.3672915E0,1.5665813E2,4.5838917E1,2.157869E2],"tree_param":{"num_deleted":"0","num_feature":"3","num_nodes":"13","size_leaf_vector":"1"}},{"base_weights":[-1.0528526E-2,-1.0884322E-1,8.3927415E-2,1.23107485E-1,-1.3855177E-3,-1.2635621E-1,1.5556358E-2],"categories":[],"categories_nodes":[],"categories_segments":[],"categories_sizes":[],"default_left":[0,0,0,0,0,0,0],"id":32,"left_children":[1,-1,3,-1,5,-1,-1],"loss_changes":[6.799726E1,0E0,6.0106422E1,0E0,1.136344E2,0E0,0E0],"parents":[2147483647,0,0,2,2,4,4],"right_children":[2,-1,4,-1,6,-1,-1],"split_conditions":[1.8726315E-3,-1.0884322E-1,1.8845502E-3,1.23107485E-1,2.8994405E-3,-1.2635621E-1,1.5556358E-2],"split_indices":[1,0,1,0,1,0,0],"split_type":[0,0,0,0,0,0,0],"sum_hessian":[6.659578E2,5.280777E1,6.1315E2,4.15136E1,5.716365E2,6.2440704E1,5.0919574E2],"tree_param":{"num_deleted":"0","num_feature":"3","num_nodes":"7","size_leaf_vector":"1"}},{"base_weights":[-1.0436682E-2,-1.0786712E-1,7.665815E-2,1.4968283E-1,-1.2504203E0,1.1827099E-1,7.1900636E-3,-2.3074117E-1,-1.1342728E-1],"categories":[],"categories_nodes":[],"categories_segments":[],"categories_sizes":[],"default_left":[0,0,0,0,0,0,0,0,0],"id":33,"left_children":[1,-1,3,5,7,-1,-1,-1,-1],"loss_changes":[6.0723564E1,0E0,5.8680435E1,4.5956047E1,1.2607231E0,0E0,0E0,0E0,0E0],"parents":[2147483647,0,0,2,2,3,3,4,4],"right_children":[2,-1,4,6,8,-1,-1,-1,-1],"split_conditions":[1.8726315E-3,-1.0786712E-1,1.0386464E-2,1.8845502E-3,7.6904255E-1,1.1827099E-1,7.1900636E-3,-2.3074117E-1,-1.1342728E-1],"split_indices":[1,0,1,1,2,0,0,0,0],"split_type":[0,0,0,0,0,0,0,0,0],"sum_hessian":[6.5078815E2,4.8201588E1,6.0258655E2,5.719986E2,3.0587961E1,3.9058357E1,5.3294025E2,1.1605215E0,2.9427439E1],"tree_param":{"num_deleted":"0","num_feature":"3","num_nodes":"9","size_leaf_vector":"1"}},{"base_weights":[-1.0399358E-2,-4.0026686E-1,2.213715E-1,-6.0243104E-2,-9.118809E-1,5.5978316E-1,-2.9653674E-1,-1.03587545E-1,3.994185E-2,-1.5547527E-1,2.8758481E-2,6.3688286E-2,-2.0724268E-1,9.9539645E-3,-1.5766178E-1],"categories":[],"categories_nodes":[],"categories_segments":[],"categories_sizes":[],"default_left":[0,0,0,0,0,0,0,0,0,0,0,0,0,0,0],"id":34,"left_children":[1,3,5,7,9,11,13,-1,-1,-1,-1,-1,-1,-1,-1],"loss_changes":[5.804482E1,4.160734E1,7.078086E1,6.541527E1,7.41249E1,5.0842636E1,8.121626E1,0E0,0E0,0E0,0E0,0E0,0E0,0E0,0E0],"parents":[2147483647,0,0,1,1,2,2,3,3,4,4,5,5,6,6],"right_children":[2,4,6,8,10,12,14,-1,-1,-1,-1,-1,-1,-1,-1],"split_conditions":[3.904533E-3,7.2923446E-1,5.4836445E-3,7.2765845E-1,7.374872E-1,7.512311E-1,7.217558E-1,-1.03587545E-1,3.994185E-2,-1.5547527E-1,2.8758481E-2,6.3688286E-2,-2.0724268E-1,9.9539645E-3,-1.5766178E-1],"split_indices":[1,2,1,2,2,2,0,0,0,0,0,0,0,0,0],"split_type":[0,0,0,0,0,0,0,0,0,0,0,0,0,0,0],"sum_hessian":[6.403928E2,2.384922E2,4.0190063E2,1.439436E2,9.45486E1,2.430234E2,1.5887723E2,4.5697357E1,9.8246254E1,6.136363E1,3.318497E1,2.3684407E2,6.179324E0,1.2203882E2,3.6838417E1],"tree_param":{"num_deleted":"0","num_feature":"3","num_nodes":"15","size_leaf_vector":"1"}},{"base_weights":[-1.1363935E-2,-1.06649354E-1,6.4940915E-2,1.2761958E-1,-1.2385544E0,1.1300182E-1,5.5820886E-3,-2.1543045E-1,-1.1119219E-1],"categories":[],"categories_nodes":[],"categories_segments":[],"categories_sizes":[],"default_left":[0,0,0,0,0,0,0,0,0],"id":35,"left_children":[1,-1,3,5,7,-1,-1,-1,-1],"loss_changes":[4.978101E1,0E0,4.7279346E1,3.9607018E1,6.838951E-1,0E0,0E0,0E0,0E0],"parents":[2147483647,0,0,2,2,3,3,4,4],"right_children":[2,-1,4,6,8,-1,-1,-1,-1],"split_conditions":[1.8726315E-3,-1.06649354E-1,1.0386464E-2,1.8845502E-3,7.6904255E-1,1.1300182E-1,5.5820886E-3,-2.1543045E-1,-1.1119219E-1],"split_indices":[1,0,1,1,2,0,0,0,0],"split_type":[0,0,0,0,0,0,0,0,0],"sum_hessian":[6.1644904E2,4.0698658E1,5.7575037E2,5.501962E2,2.5554136E1,3.5789658E1,5.144066E2,1.1591816E0,2.4394955E1],"tree_param":{"num_deleted":"0","num_feature":"3","num_nodes":"9","size_leaf_vector":"1"}},{"base_weights":[-1.1174204E-2,-3.9080724E-1,2.096379E-1,-6.4090304E-2,-8.7088126E-1,1.029974E0,6.341337E-3,-4.126271E-2,1.06076054E-1,-1.5114194E-1,2.5831658E-2,-1.495006E-1,1.0994232E-1,-1.6415657E-1,2.5546808E-2],"categories":[],"categories_nodes":[],"categories_segments":[],"categories_sizes":[],"default_left":[0,0,0,0,0,0,0,0,0,0,0,0,0,0,0],"id":36,"left_children":[1,3,5,7,9,11,13,-1,-1,-1,-1,-1,-1,-1,-1],"loss_changes":[5.1098873E1,3.5102966E1,6.427321E1,5.315404E1,6.598979E1,1.5065979E1,1.27642296E2,0E0,0E0,0E0,0E0,0E0,0E0,0E0,0E0],"parents":[2147483647,0,0,1,1,2,2,3,3,4,4,5,5,6,6],"right_children":[2,4,6,8,10,12,14,-1,-1,-1,-1,-1,-1,-1,-1],"split_conditions":[3.904533E-3,7.2923446E-1,7.339244E-1,7.291797E-1,7.374872E-1,7.3154163E-1,7.201798E-1,-4.126271E-2,1.06076054E-1,-1.5114194E-1,2.5831658E-2,-1.495006E-1,1.0994232E-1,-1.6415657E-1,2.5546808E-2],"split_indices":[1,2,2,2,2,2,0,0,0,0,0,0,0,0,0],"split_type":[0,0,0,0,0,0,0,0,0,0,0,0,0,0,0],"sum_hessian":[6.075939E2,2.2315791E2,3.8443597E2,1.3346268E2,8.9695244E1,7.554256E1,3.088934E2,1.0237484E2,3.1087833E1,5.7014973E1,3.2680267E1,1.4726985E0,7.406986E1,3.9831223E1,2.690622E2],"tree_param":{"num_deleted":"0","num_feature":"3","num_nodes":"15","size_leaf_vector":"1"}},{"base_weights":[-1.08599905E-2,-3.654687E-1,1.9426933E-1,-2.5929913E-1,-1.8495686E0,3.120808E-1,-1.0954384E-1,-4.17997E-2,8.289872E-2,-1.0423279E-1,-2.3643814E-1,9.994881E-2,1.3187616E-2],"categories":[],"categories_nodes":[],"categories_segments":[],"categories_sizes":[],"default_left":[0,0,0,0,0,0,0,0,0,0,0,0,0],"id":37,"left_children":[1,3,5,7,9,11,-1,-1,-1,-1,-1,-1,-1],"loss_changes":[4.297171E1,3.363108E1,5.7212624E1,3.544002E1,3.474102E0,4.2448788E1,0E0,0E0,0E0,0E0,0E0,0E0,0E0],"parents":[2147483647,0,0,1,1,2,2,3,3,4,4,5,5],"right_children":[2,4,6,8,10,12,-1,-1,-1,-1,-1,-1,-1],"split_conditions":[3.904533E-3,3.5147707E-3,7.2266906E-1,3.4634527E-3,7.2069055E-1,7.339244E-1,-1.0954384E-1,-4.17997E-2,8.289872E-2,-1.0423279E-1,-2.3643814E-1,9.994881E-2,1.3187616E-2],"split_indices":[1,1,0,1,0,2,0,0,0,0,0,0,0],"split_type":[0,0,0,0,0,0,0,0,0,0,0,0,0],"sum_hessian":[5.887763E2,2.1548462E2,3.7329166E2,2.0219472E2,1.3289897E1,3.4274118E2,3.0550505E1,1.7699986E2,2.5194855E1,6.3529572E0,6.9369397E0,7.02437E1,2.7249747E2],"tree_param":{"num_deleted":"0","num_feature":"3","num_nodes":"13","size_leaf_vector":"1"}},{"base_weights":[-1.0268611E-2,-1.02394454E-1,5.9948366E-2,1.1282939E-1,-1.645002E-2,-1.2369888E-1,1.1998916E-2],"categories":[],"categories_nodes":[],"categories_segments":[],"categories_sizes":[],"default_left":[0,0,0,0,0,0,0],"id":38,"left_children":[1,-1,3,-1,5,-1,-1],"loss_changes":[4.1161335E1,0E0,4.4172333E1,0E0,8.4387375E1,0E0,0E0],"parents":[2147483647,0,0,2,2,4,4],"right_children":[2,-1,4,-1,6,-1,-1],"split_conditions":[7.2765845E-1,-1.02394454E-1,7.277238E-1,1.1282939E-1,2.8994405E-3,-1.2369888E-1,1.1998916E-2],"split_indices":[2,0,2,0,1,0,0],"split_type":[0,0,0,0,0,0,0],"sum_hessian":[5.7643097E2,3.6462563E1,5.399684E2,3.511774E1,5.0485065E2,4.994986E1,4.549008E2],"tree_param":{"num_deleted":"0","num_feature":"3","num_nodes":"7","size_leaf_vector":"1"}},{"base_weights":[-1.0085609E-2,4.792427E-2,-1.1608084E-1,-3.2855678E-1,2.7556795E-1,2.658793E-4,-8.2270764E-2,9.641235E-2,1.0717737E-2],"categories":[],"categories_nodes":[],"categories_segments":[],"categories_sizes":[],"default_left":[0,0,0,0,0,0,0,0,0],"id":39,"left_children":[1,3,-1,5,7,-1,-1,-1,-1],"loss_changes":[3.7819077E1,4.6329903E1,0E0,3.3351406E1,3.8943726E1,0E0,0E0,0E0,0E0],"parents":[2147483647,0,0,1,1,3,3,4,4],"right_children":[2,4,-1,6,8,-1,-1,-1,-1],"split_conditions":[7.7305645E-1,3.904533E-3,-1.1608084E-1,7.2923446E-1,7.339244E-1,2.658793E-4,-8.2270764E-2,9.641235E-2,1.0717737E-2],"split_indices":[2,1,0,2,2,0,0,0,0],"split_type":[0,0,0,0,0,0,0,0,0],"sum_hessian":[5.647166E2,5.385269E2,2.6189697E1,2.0275836E2,3.3576855E2,1.2198789E2,8.077048E1,6.505022E1,2.7071832E2],"tree_param":{"num_deleted":"0","num_feature":"3","num_nodes":"9","size_leaf_vector":"1"}},{"base_weights":[-9.287876E-3,-5.4886615E-1,1.20634675E-1,2.3127955E-1,-1.5310589E0,2.0451E-1,-1.0816087E-1,-1.07153855E-1,1.2061697E-1,-1.8394078E-1,-1.2886068E-1,-1.7035792E-2,4.4610877E-2],"categories":[],"categories_nodes":[],"categories_segments":[],"categories_sizes":[],"default_left":[0,0,0,0,0,0,0,0,0,0,0,0,0],"id":40,"left_children":[1,3,5,7,9,11,-1,-1,-1,-1,-1,-1,-1],"loss_changes":[3.910348E1,8.329521E1,4.555926E1,7.901626E1,1.2217636E0,3.8216713E1,0E0,0E0,0E0,0E0,0E0,0E0,0E0],"parents":[2147483647,0,0,1,1,2,2,3,3,4,4,5,5],"right_children":[2,4,6,8,10,12,-1,-1,-1,-1,-1,-1,-1],"split_conditions":[7.201798E-1,7.317236E-1,7.2266906E-1,7.3154163E-1,7.416033E-1,7.374872E-1,-1.0816087E-1,-1.07153855E-1,1.2061697E-1,-1.8394078E-1,-1.2886068E-1,-1.7035792E-2,4.4610877E-2],"split_indices":[0,2,0,2,2,2,0,0,0,0,0,0,0],"split_type":[0,0,0,0,0,0,0,0,0,0,0,0,0],"sum_hessian":[5.5585284E2,1.0724239E2,4.486104E2,6.0194805E1,4.7047592E1,4.201297E2,2.848074E1,2.5721764E1,3.447304E1,1.7810127E1,2.9237465E1,1.6476811E2,2.5536157E2],"tree_param":{"num_deleted":"0","num_feature":"3","num_nodes":"13","size_leaf_vector":"1"}},{"base_weights":[-9.580604E-3,-1.01571634E-1,5.4457903E-2,1.09583095E-1,-2.068568E-2,-1.2060379E-1,1.0270676E-2],"categories":[],"categories_nodes":[],"categories_segments":[],"categories_sizes":[],"default_left":[0,0,0,0,0,0,0],"id":41,"left_children":[1,-1,3,-1,5,-1,-1],"loss_changes":[3.4796597E1,0E0,3.9765675E1,0E0,6.9552475E1,0E0,0E0],"parents":[2147483647,0,0,2,2,4,4],"right_children":[2,-1,4,-1,6,-1,-1],"split_conditions":[7.2765845E-1,-1.01571634E-1,7.277238E-1,1.09583095E-1,2.8994405E-3,-1.2060379E-1,1.0270676E-2],"split_indices":[2,0,2,0,1,0,0],"split_type":[0,0,0,0,0,0,0],"sum_hessian":[5.3819775E2,3.1316116E1,5.0688162E2,3.3199875E1,4.7368173E2,4.3832916E1,4.2984882E2],"tree_param":{"num_deleted":"0","num_feature":"3","num_nodes":"7","size_leaf_vector":"1"}},{"base_weights":[-9.409165E-3,4.170116E-2,-1.25653E0,-4.1774696E-1,2.1531357E-1,-2.1175213E-1,-1.1019762E-1,2.5763325E-3,-1.4619426E-1,2.7487164E-2,-1.0986793E-1],"categories":[],"categories_nodes":[],"categories_segments":[],"categories_sizes":[],"default_left":[0,0,0,0,0,0,0,0,0,0,0],"id":42,"left_children":[1,3,5,7,9,-1,-1,-1,-1,-1,-1],"loss_changes":[3.3763363E1,4.069258E1,4.4151306E-1,6.484363E1,2.9264557E1,0E0,0E0,0E0,0E0,0E0,0E0],"parents":[2147483647,0,0,1,1,2,2,3,3,4,4],"right_children":[2,4,6,8,10,-1,-1,-1,-1,-1,-1],"split_conditions":[1.0386464E-2,7.2069055E-1,7.6904255E-1,7.3937726E-1,7.2266906E-1,-2.1175213E-1,-1.1019762E-1,2.5763325E-3,-1.4619426E-1,2.7487164E-2,-1.0986793E-1],"split_indices":[1,0,2,2,0,0,0,0,0,0,0],"split_type":[0,0,0,0,0,0,0,0,0,0,0],"sum_hessian":[5.278761E2,5.0802252E2,1.985355E1,1.3893597E2,3.6908655E2,1.0885543E0,1.8764996E1,9.820138E1,4.0734592E1,3.5383923E2,1.5247318E1],"tree_param":{"num_deleted":"0","num_feature":"3","num_nodes":"11","size_leaf_vector":"1"}},{"base_weights":[-1.0174326E-2,-1.0104104E-1,5.084252E-2,1.0843625E-1,-1.1537049E-1,1.0503401E-1,4.0362733E-3],"categories":[],"categories_nodes":[],"categories_segments":[],"categories_sizes":[],"default_left":[0,0,0,0,0,0,0],"id":43,"left_children":[1,-1,3,5,-1,-1,-1],"loss_changes":[3.1707884E1,0E0,3.410628E1,2.9989895E1,0E0,0E0,0E0],"parents":[2147483647,0,0,2,2,3,3],"right_children":[2,-1,4,6,-1,-1,-1],"split_conditions":[7.2765845E-1,-1.0104104E-1,7.7305645E-1,7.277238E-1,-1.1537049E-1,1.0503401E-1,4.0362733E-3],"split_indices":[2,0,2,2,0,0,0],"split_type":[0,0,0,0,0,0,0],"sum_hessian":[5.176934E2,2.887024E1,4.888232E2,4.6738577E2,2.1437414E1,3.0529722E1,4.3685608E2],"tree_param":{"num_deleted":"0","num_feature":"3","num_nodes":"7","size_leaf_vector":"1"}},{"base_weights":[-9.7361915E-3,-1.0293778E-1,4.578501E-2,1.0455354E-1,-1.8028669E-2,-1.1728492E-1,9.972123E-3],"categories":[],"categories_nodes":[],"categories_segments":[],"categories_sizes":[],"default_left":[0,0,0,0,0,0,0],"id":44,"left_children":[1,-1,3,-1,5,-1,-1],"loss_changes":[2.9017862E1,0E0,3.1042126E1,0E0,6.240694E1,0E0,0E0],"parents":[2147483647,0,0,2,2,4,4],"right_children":[2,-1,4,-1,6,-1,-1],"split_conditions":[1.8726315E-3,-1.0293778E-1,1.8845502E-3,1.0455354E-1,2.8994405E-3,-1.1728492E-1,9.972123E-3],"split_indices":[1,0,1,0,1,0,0],"split_type":[0,0,0,0,0,0,0],"sum_hessian":[5.107443E2,2.546896E1,4.8527533E2,2.8193394E1,4.5708194E2,4.146431E1,4.1561765E2],"tree_param":{"num_deleted":"0","num_feature":"3","num_nodes":"7","size_leaf_vector":"1"}},{"base_weights":[-9.542206E-3,3.6125794E-2,-1.236607E0,-3.8075024E-1,1.9422965E-1,-1.9691475E-1,-1.071128E-1,4.9574706E-3,-1.4112318E-1,-2.0161077E-2,3.8699325E-2],"categories":[],"categories_nodes":[],"categories_segments":[],"categories_sizes":[],"default_left":[0,0,0,0,0,0,0,0,0,0,0],"id":45,"left_children":[1,3,5,7,9,-1,-1,-1,-1,-1,-1],"loss_changes":[2.8198345E1,3.2063313E1,7.95002E-2,5.9400803E1,2.6979244E1,0E0,0E0,0E0,0E0,0E0,0E0],"parents":[2147483647,0,0,1,1,2,2,3,3,4,4],"right_children":[2,4,6,8,10,-1,-1,-1,-1,-1,-1],"split_conditions":[1.0386464E-2,7.2069055E-1,7.6904255E-1,7.3937726E-1,3.4634527E-3,-1.9691475E-1,-1.071128E-1,4.9574706E-3,-1.4112318E-1,-2.0161077E-2,3.8699325E-2],"split_indices":[1,0,2,2,1,0,0,0,0,0,0],"split_type":[0,0,0,0,0,0,0,0,0,0,0],"sum_hessian":[5.014069E2,4.8435123E2,1.7055672E1,1.327962E2,3.51555E2,1.1343689E0,1.5921302E1,9.434853E1,3.8447678E1,1.1511671E2,2.364383E2],"tree_param":{"num_deleted":"0","num_feature":"3","num_nodes":"11","size_leaf_vector":"1"}},{"base_weights":[-9.8413555E-3,4.271109E-2,-1.06472194E-1,-2.8823027E-1,2.3848279E-1,6.7087705E-3,-7.8804694E-2,8.9770235E-2,8.05566E-3],"categories":[],"categories_nodes":[],"categories_segments":[],"categories_sizes":[],"default_left":[0,0,0,0,0,0,0,0,0],"id":46,"left_children":[1,3,-1,5,7,-1,-1,-1,-1],"loss_changes":[2.7335909E1,3.0511951E1,0E0,3.1149815E1,3.0720898E1,0E0,0E0,0E0,0E0],"parents":[2147483647,0,0,1,1,3,3,4,4],"right_children":[2,4,-1,6,8,-1,-1,-1,-1],"split_conditions":[7.2266906E-1,3.904533E-3,-1.06472194E-1,7.2923446E-1,7.339244E-1,6.7087705E-3,-7.8804694E-2,8.9770235E-2,8.05566E-3],"split_indices":[0,1,0,2,2,0,0,0,0],"split_type":[0,0,0,0,0,0,0,0,0],"sum_hessian":[4.9128226E2,4.6888278E2,2.239947E1,1.7410147E2,2.947813E2,1.0226641E2,7.183506E1,5.6065777E1,2.3871553E2],"tree_param":{"num_deleted":"0","num_feature":"3","num_nodes":"9","size_leaf_vector":"1"}},{"base_weights":[-9.060573E-3,-5.1053137E-1,1.031303E-1,2.761024E-1,-1.4547541E0,2.4666026E-1,-4.7448716E-1,-1.0840132E-1,1.1485577E-1,-1.75709E-1,-1.180349E-1,-2.9310513E-2,5.5381246E-2,3.5950493E-2,-2.1783833E-1],"categories":[],"categories_nodes":[],"categories_segments":[],"categories_sizes":[],"default_left":[0,0,0,0,0,0,0,0,0,0,0,0,0,0,0],"id":47,"left_children":[1,3,5,7,9,11,13,-1,-1,-1,-1,-1,-1,-1,-1],"loss_changes":[2.7346266E1,6.640343E1,3.3052807E1,5.9765316E1,1.2896957E0,5.3025948E1,1.13628365E2,0E0,0E0,0E0,0E0,0E0,0E0,0E0,0E0],"parents":[2147483647,0,0,1,1,2,2,3,3,4,4,5,5,6,6],"right_children":[2,4,6,8,10,12,14,-1,-1,-1,-1,-1,-1,-1,-1],"split_conditions":[7.201798E-1,7.317236E-1,7.217558E-1,7.3154163E-1,7.416033E-1,7.374872E-1,7.418649E-1,-1.0840132E-1,1.1485577E-1,-1.75709E-1,-1.180349E-1,-2.9310513E-2,5.5381246E-2,3.5950493E-2,-2.1783833E-1],"split_indices":[0,2,0,2,2,2,2,0,0,0,0,0,0,0,0],"split_type":[0,0,0,0,0,0,0,0,0,0,0,0,0,0,0],"sum_hessian":[4.841297E2,8.786045E1,3.9626923E2,4.8315937E1,3.9544514E1,3.178587E2,7.841053E1,1.8786385E1,2.9529554E1,1.6243917E1,2.3300598E1,1.15294624E2,2.0256409E2,5.317326E1,2.523727E1],"tree_param":{"num_deleted":"0","num_feature":"3","num_nodes":"15","size_leaf_vector":"1"}},{"base_weights":[-9.891761E-3,-1.01610415E-1,4.1909747E-2,1.0277563E-1,-2.4350738E-2,-1.14368014E-1,8.40907E-3],"categories":[],"categories_nodes":[],"categories_segments":[],"categories_sizes":[],"default_left":[0,0,0,0,0,0,0],"id":48,"left_children":[1,-1,3,-1,5,-1,-1],"loss_changes":[2.437706E1,0E0,2.9091377E1,0E0,5.0823906E1,0E0,0E0],"parents":[2147483647,0,0,2,2,4,4],"right_children":[2,-1,4,-1,6,-1,-1],"split_conditions":[1.8726315E-3,-1.01610415E-1,1.8845502E-3,1.0277563E-1,2.8994405E-3,-1.14368014E-1,8.40907E-3],"split_indices":[1,0,1,0,1,0,0],"split_type":[0,0,0,0,0,0,0],"sum_hessian":[4.658635E2,2.1897755E1,4.4396576E2,2.7046574E1,4.169192E2,3.5980717E1,3.8093845E2],"tree_param":{"num_deleted":"0","num_feature":"3","num_nodes":"7","size_leaf_vector":"1"}},{"base_weights":[-9.653514E-3,-3.8928652E-1,1.2582833E-1,2.9773517E-2,-1.3508736E-1,2.9101452E-1,-4.6101227E-1,-1.2055361E-1,6.0976863E-2,-1.7237253E-2,5.912183E-2,3.3754915E-2,-2.2249782E-1],"categories":[],"categories_nodes":[],"categories_segments":[],"categories_sizes":[],"default_left":[0,0,0,0,0,0,0,0,0,0,0,0,0],"id":49,"left_children":[1,3,5,7,-1,9,11,-1,-1,-1,-1,-1,-1],"loss_changes":[2.3641758E1,4.875428E1,3.297827E1,6.1760868E1,0E0,3.6967087E1,1.0613024E2,0E0,0E0,0E0,0E0,0E0,0E0],"parents":[2147483647,0,0,1,1,2,2,3,3,5,5,6,6],"right_children":[2,4,6,8,-1,10,12,-1,-1,-1,-1,-1,-1],"split_conditions":[7.2069055E-1,7.3937726E-1,7.217558E-1,4.2592324E-3,-1.3508736E-1,7.374872E-1,7.418649E-1,-1.2055361E-1,6.0976863E-2,-1.7237253E-2,5.912183E-2,3.3754915E-2,-2.2249782E-1],"split_indices":[0,2,0,1,0,2,2,0,0,0,0,0,0],"split_type":[0,0,0,0,0,0,0,0,0,0,0,0,0],"sum_hessian":[4.5770554E2,1.1988973E2,3.378158E2,8.417519E1,3.5714542E1,2.6400635E2,7.380944E1,2.6549625E1,5.7625565E1,1.0396082E2,1.6004553E2,5.136482E1,2.244462E1],"tree_param":{"num_deleted":"0","num_feature":"3","num_nodes":"13","size_leaf_vector":"1"}},{"base_weights":[-1.0487629E-2,3.1216776E-2,-1.1560211E-1,-4.2725205E-2,8.8381425E-2,1.2121387E-3,-2.2313516E-1],"categories":[],"categories_nodes":[],"categories_segments":[],"categories_sizes":[],"default_left":[0,0,0,0,0,0,0],"id":50,"left_children":[1,3,-1,5,-1,-1,-1],"loss_changes":[2.1103138E1,2.6922876E1,0E0,4.724776E1,0E0,0E0,0E0],"parents":[2147483647,0,0,1,1,3,3],"right_children":[2,4,-1,6,-1,-1,-1],"split_conditions":[7.7305645E-1,7.7131635E-1,-1.1560211E-1,7.617071E-1,8.8381425E-2,1.2121387E-3,-2.2313516E-1],"split_indices":[2,2,0,2,0,0,0],"split_type":[0,0,0,0,0,0,0],"sum_hessian":[4.3997504E2,4.254585E2,1.4516535E1,3.923791E2,3.3079403E1,3.8375668E2,8.622414E0],"tree_param":{"num_deleted":"0","num_feature":"3","num_nodes":"7","size_leaf_vector":"1"}},{"base_weights":[-1.0203492E-2,-1.0057255E-1,3.7632696E-2,1.0033375E-1,-2.7659742E-2,-1.1261437E-1,7.343963E-3],"categories":[],"categories_nodes":[],"categories_segments":[],"categories_sizes":[],"default_left":[0,0,0,0,0,0,0],"id":51,"left_children":[1,-1,3,-1,5,-1,-1],"loss_changes":[2.0835316E1,0E0,2.6362629E1,0E0,4.3637104E1,0E0,0E0],"parents":[2147483647,0,0,2,2,4,4],"right_children":[2,-1,4,-1,6,-1,-1],"split_conditions":[1.8726315E-3,-1.0057255E-1,1.8845502E-3,1.0033375E-1,2.8994405E-3,-1.1261437E-1,7.343963E-3],"split_indices":[1,0,1,0,1,0,0],"split_type":[0,0,0,0,0,0,0],"sum_hessian":[4.3571997E2,1.9058933E1,4.1666104E2,2.547705E1,3.91184E2,3.2113995E1,3.5907E2],"tree_param":{"num_deleted":"0","num_feature":"3","num_nodes":"7","size_leaf_vector":"1"}},{"base_weights":[-9.916523E-3,-4.822152E-1,8.86068E-2,3.513922E-1,-1.42153E0,2.143849E-1,-4.306797E-1,-1.09029114E-1,1.11016415E-1,-1.7999561E-1,-1.1672874E-1,-2.4678024E-2,4.826316E-2,3.1574894E-2,-2.2938696E-1],"categories":[],"categories_nodes":[],"categories_segments":[],"categories_sizes":[],"default_left":[0,0,0,0,0,0,0,0,0,0,0,0,0,0,0],"id":52,"left_children":[1,3,5,7,9,11,13,-1,-1,-1,-1,-1,-1,-1,-1],"loss_changes":[2.0026386E1,5.866147E1,2.3356026E1,4.5137077E1,1.2782211E0,3.5671703E1,9.7772415E1,0E0,0E0,0E0,0E0,0E0,0E0,0E0,0E0],"parents":[2147483647,0,0,1,1,2,2,3,3,4,4,5,5,6,6],"right_children":[2,4,6,8,10,12,14,-1,-1,-1,-1,-1,-1,-1,-1],"split_conditions":[7.201798E-1,7.317236E-1,7.217558E-1,7.3154163E-1,7.3937726E-1,7.374872E-1,7.418649E-1,-1.09029114E-1,1.11016415E-1,-1.7999561E-1,-1.1672874E-1,-2.4678024E-2,4.826316E-2,3.1574894E-2,-2.2938696E-1],"split_indices":[0,2,0,2,2,2,2,0,0,0,0,0,0,0,0],"split_type":[0,0,0,0,0,0,0,0,0,0,0,0,0,0,0],"sum_hessian":[4.2845663E2,7.327902E1,3.551776E2,3.9155693E1,3.412333E1,2.8639587E2,6.878174E1,1.3351202E1,2.580449E1,1.1269556E1,2.2853773E1,1.0535367E2,1.810422E2,4.970109E1,1.9080652E1],"tree_param":{"num_deleted":"0","num_feature":"3","num_nodes":"15","size_leaf_vector":"1"}},{"base_weights":[-1.071851E-2,-3.750294E-1,1.12918384E-1,3.442937E-2,-1.308481E-1,7.062868E-1,-2.4341444E-2,-1.2234972E-1,5.5102166E-2,-8.685964E-2,8.037842E-2,-5.41919E-2,1.8379284E-2],"categories":[],"categories_nodes":[],"categories_segments":[],"categories_sizes":[],"default_left":[0,0,0,0,0,0,0,0,0,0,0,0,0],"id":53,"left_children":[1,3,5,7,-1,9,11,-1,-1,-1,-1,-1,-1],"loss_changes":[1.8744568E1,4.034494E1,2.5328526E1,4.8933975E1,0E0,9.667967E0,2.7392796E1,0E0,0E0,0E0,0E0,0E0,0E0],"parents":[2147483647,0,0,1,1,2,2,3,3,5,5,6,6],"right_children":[2,4,6,8,-1,10,12,-1,-1,-1,-1,-1,-1],"split_conditions":[7.2069055E-1,7.3937726E-1,7.209236E-1,4.2592324E-3,-1.308481E-1,2.8994405E-3,3.4634527E-3,-1.2234972E-1,5.5102166E-2,-8.685964E-2,8.037842E-2,-5.41919E-2,1.8379284E-2],"split_indices":[0,2,0,1,0,1,1,0,0,0,0,0,0],"split_type":[0,0,0,0,0,0,0,0,0,0,0,0,0],"sum_hessian":[4.1421487E2,1.0443914E2,3.0977576E2,7.326468E1,3.117446E1,5.7417347E1,2.523584E2,2.0930216E1,5.2334465E1,2.8862693E0,5.453108E1,7.19165E1,1.804419E2],"tree_param":{"num_deleted":"0","num_feature":"3","num_nodes":"13","size_leaf_vector":"1"}},{"base_weights":[-1.0783163E-2,2.5027294E-2,-1.2809049E-1,-6.515301E-2,6.643752E-1,7.631746E-3,-2.621782E-1,8.2617104E-2,-1.4920162E-1],"categories":[],"categories_nodes":[],"categories_segments":[],"categories_sizes":[],"default_left":[0,0,0,0,0,0,0,0,0],"id":54,"left_children":[1,3,-1,5,7,-1,-1,-1,-1],"loss_changes":[1.8367197E1,2.270474E1,0E0,1.2511499E2,1.8215141E1,0E0,0E0,0E0,0E0],"parents":[2147483647,0,0,1,1,3,3,4,4],"right_children":[2,4,-1,6,8,-1,-1,-1,-1],"split_conditions":[1.0386464E-2,8.911214E-3,-1.2809049E-1,7.512311E-1,7.217558E-1,7.631746E-3,-2.621782E-1,8.2617104E-2,-1.4920162E-1],"split_indices":[1,1,0,2,0,0,0,0,0],"split_type":[0,0,0,0,0,0,0,0,0],"sum_hessian":[4.0211508E2,3.9204193E2,1.0073134E1,3.443669E2,4.7675014E1,3.272299E2,1.713704E1,4.49214E1,2.7536168E0],"tree_param":{"num_deleted":"0","num_feature":"3","num_nodes":"9","size_leaf_vector":"1"}},{"base_weights":[-1.1292728E-2,-9.888129E-2,3.128443E-2,9.967026E-2,-3.9068516E-2,-1.1015298E-1,5.2669034E-3],"categories":[],"categories_nodes":[],"categories_segments":[],"categories_sizes":[],"default_left":[0,0,0,0,0,0,0],"id":55,"left_children":[1,-1,3,-1,5,-1,-1],"loss_changes":[1.6555384E1,0E0,2.5945614E1,0E0,3.480361E1,0E0,0E0],"parents":[2147483647,0,0,2,2,4,4],"right_children":[2,-1,4,-1,6,-1,-1],"split_conditions":[1.8726315E-3,-9.888129E-2,1.8845502E-3,9.967026E-2,2.8994405E-3,-1.1015298E-1,5.2669034E-3],"split_indices":[1,0,1,0,1,0,0],"split_type":[0,0,0,0,0,0,0],"sum_hessian":[3.9603125E2,1.5602089E1,3.8042917E2,2.494563E1,3.5548352E2,2.7379507E1,3.2810403E2],"tree_param":{"num_deleted":"0","num_feature":"3","num_nodes":"7","size_leaf_vector":"1"}},{"base_weights":[-1.0861694E-2,2.2927335E-2,-1.2614179E-1,-5.979767E-2,6.356278E-1,7.2094756E-3,-2.570857E-1,7.952436E-2,-1.4629635E-1],"categories":[],"categories_nodes":[],"categories_segments":[],"categories_sizes":[],"default_left":[0,0,0,0,0,0,0,0,0],"id":56,"left_children":[1,3,-1,5,7,-1,-1,-1,-1],"loss_changes":[1.6545822E1,1.937885E1,0E0,1.11831535E2,1.6397003E1,0E0,0E0,0E0,0E0],"parents":[2147483647,0,0,1,1,3,3,4,4],"right_children":[2,4,-1,6,8,-1,-1,-1,-1],"split_conditions":[1.0386464E-2,8.911214E-3,-1.2614179E-1,7.512311E-1,7.217558E-1,7.2094756E-3,-2.570857E-1,7.952436E-2,-1.4629635E-1],"split_indices":[1,1,0,2,0,0,0,0,0],"split_type":[0,0,0,0,0,0,0,0,0],"sum_hessian":[3.898856E2,3.8058417E2,9.3014145E0,3.3610648E2,4.44777E1,3.202564E2,1.5850057E1,4.1911064E1,2.5666366E0],"tree_param":{"num_deleted":"0","num_feature":"3","num_nodes":"9","size_leaf_vector":"1"}},{"base_weights":[-1.1304267E-2,-9.800603E-2,2.8794708E-2,9.64813E-2,-3.6221094E-2,-1.08718574E-1,4.9415613E-3],"categories":[],"categories_nodes":[],"categories_segments":[],"categories_sizes":[],"default_left":[0,0,0,0,0,0,0],"id":57,"left_children":[1,-1,3,-1,5,-1,-1],"loss_changes":[1.5002685E1,0E0,2.2620504E1,0E0,3.1373281E1,0E0,0E0],"parents":[2147483647,0,0,2,2,4,4],"right_children":[2,-1,4,-1,6,-1,-1],"split_conditions":[1.8726315E-3,-9.800603E-2,1.8845502E-3,9.64813E-2,2.8994405E-3,-1.08718574E-1,4.9415613E-3],"split_indices":[1,0,1,0,1,0,0],"split_type":[0,0,0,0,0,0,0],"sum_hessian":[3.8448157E2,1.4350283E1,3.701313E2,2.3140656E1,3.4699063E2,2.5262669E1,3.2172794E2],"tree_param":{"num_deleted":"0","num_feature":"3","num_nodes":"7","size_leaf_vector":"1"}},{"base_weights":[-1.0864942E-2,2.0968085E-2,-1.2414284E-1,-5.476055E-2,6.063783E-1,6.800368E-3,-2.495116E-1,7.6372795E-2,-1.4291953E-1],"categories":[],"categories_nodes":[],"categories_segments":[],"categories_sizes":[],"default_left":[0,0,0,0,0,0,0,0,0],"id":58,"left_children":[1,3,-1,5,7,-1,-1,-1,-1],"loss_changes":[1.4904338E1,1.6490265E1,0E0,9.891908E1,1.4737257E1,0E0,0E0,0E0,0E0],"parents":[2147483647,0,0,1,1,3,3,4,4],"right_children":[2,4,-1,6,8,-1,-1,-1,-1],"split_conditions":[1.0386464E-2,8.911214E-3,-1.2414284E-1,7.512311E-1,7.217558E-1,6.800368E-3,-2.495116E-1,7.6372795E-2,-1.4291953E-1],"split_indices":[1,1,0,2,0,0,0,0,0],"split_type":[0,0,0,0,0,0,0,0,0],"sum_hessian":[3.7881454E2,3.702204E2,8.594145E0,3.2861697E2,4.1603416E1,3.1380298E2,1.4814001E1,3.9198208E1,2.4052088E0],"tree_param":{"num_deleted":"0","num_feature":"3","num_nodes":"9","size_leaf_vector":"1"}},{"base_weights":[-1.1239634E-2,-1.1232708E-1,2.3456194E-2,1.0230507E-1,-4.5756366E-2,-1.4028332E-1,7.3670894E-3],"categories":[],"categories_nodes":[],"categories_segments":[],"categories_sizes":[],"default_left":[0,0,0,0,0,0,0],"id":59,"left_children":[1,-1,3,-1,5,-1,-1],"loss_changes":[1.4495972E1,0E0,2.5275627E1,0E0,5.5532444E1,0E0,0E0],"parents":[2147483647,0,0,2,2,4,4],"right_children":[2,-1,4,-1,6,-1,-1],"split_conditions":[7.176382E-1,-1.1232708E-1,7.177081E-1,1.0230507E-1,7.201798E-1,-1.4028332E-1,7.3670894E-3],"split_indices":[0,0,0,0,0,0,0],"split_type":[0,0,0,0,0,0,0],"sum_hessian":[3.7402747E2,1.0367435E1,3.6366003E2,2.265704E1,3.41003E2,2.671286E1,3.1429013E2],"tree_param":{"num_deleted":"0","num_feature":"3","num_nodes":"7","size_leaf_vector":"1"}},{"base_weights":[-1.0939778E-2,1.898862E-2,-1.22205816E-1,-9.708264E-2,5.825299E-2,9.329128E-2,-1.6728803E-4],"categories":[],"categories_nodes":[],"categories_segments":[],"categories_sizes":[],"default_left":[0,0,0,0,0,0,0],"id":60,"left_children":[1,3,-1,-1,5,-1,-1],"loss_changes":[1.3411064E1,1.4103342E1,0E0,0E0,1.8272463E1,0E0,0E0],"parents":[2147483647,0,0,1,1,4,4],"right_children":[2,4,-1,-1,6,-1,-1],"split_conditions":[1.0386464E-2,1.8726315E-3,-1.22205816E-1,-9.708264E-2,1.8845502E-3,9.329128E-2,-1.6728803E-4],"split_indices":[1,1,0,0,1,0,0],"split_type":[0,0,0,0,0,0,0],"sum_hessian":[3.683525E2,3.604301E2,7.9224014E0,1.2846919E1,3.475832E2,2.1353031E1,3.2623016E2],"tree_param":{"num_deleted":"0","num_feature":"3","num_nodes":"7","size_leaf_vector":"1"}},{"base_weights":[-1.0343487E-2,-1.1001011E-1,2.1601615E-2,1.00005984E-1,-4.2487968E-2,-1.3813214E-1,6.69669E-3],"categories":[],"categories_nodes":[],"categories_segments":[],"categories_sizes":[],"default_left":[0,0,0,0,0,0,0],"id":61,"left_children":[1,-1,3,-1,5,-1,-1],"loss_changes":[1.2774214E1,0E0,2.2417774E1,0E0,4.9306534E1,0E0,0E0],"parents":[2147483647,0,0,2,2,4,4],"right_children":[2,-1,4,-1,6,-1,-1],"split_conditions":[7.176382E-1,-1.1001011E-1,7.177081E-1,1.00005984E-1,7.201798E-1,-1.3813214E-1,6.69669E-3],"split_indices":[0,0,0,0,0,0,0],"split_type":[0,0,0,0,0,0,0],"sum_hessian":[3.6526154E2,9.450063E0,3.5581146E2,2.0975382E1,3.348361E2,2.4427162E1,3.104089E2],"tree_param":{"num_deleted":"0","num_feature":"3","num_nodes":"7","size_leaf_vector":"1"}},{"base_weights":[-1.0086953E-2,2.0732868E-2,-1.1040672E-1,-3.3980038E-2,7.9199664E-2,5.9972825E-3,-1.01640776E-1],"categories":[],"categories_nodes":[],"categories_segments":[],"categories_sizes":[],"default_left":[0,0,0,0,0,0,0],"id":62,"left_children":[1,3,-1,5,-1,-1,-1],"loss_changes":[1.2197774E1,1.4888466E1,0E0,3.0503551E1,0E0,0E0,0E0],"parents":[2147483647,0,0,1,1,3,3],"right_children":[2,4,-1,6,-1,-1,-1],"split_conditions":[7.7305645E-1,7.7131635E-1,-1.1040672E-1,7.512311E-1,7.9199664E-2,5.9972825E-3,-1.01640776E-1],"split_indices":[2,2,0,2,0,0,0],"split_type":[0,0,0,0,0,0,0],"sum_hessian":[3.600981E2,3.511855E2,8.912617E0,3.288155E2,2.2369997E1,3.0097153E2,2.7843966E1],"tree_param":{"num_deleted":"0","num_feature":"3","num_nodes":"7","size_leaf_vector":"1"}},{"base_weights":[-9.299204E-3,-9.610425E-2,2.5067069E-2,9.015032E-2,-3.0464748E-2,-1.0778828E-1,5.2161478E-3],"categories":[],"categories_nodes":[],"categories_segments":[],"categories_sizes":[],"default_left":[0,0,0,0,0,0,0],"id":63,"left_children":[1,-1,3,-1,5,-1,-1],"loss_changes":[1.1768906E1,0E0,1.6942402E1,0E0,2.8425543E1,0E0,0E0],"parents":[2147483647,0,0,2,2,4,4],"right_children":[2,-1,4,-1,6,-1,-1],"split_conditions":[1.8726315E-3,-9.610425E-2,1.8845502E-3,9.015032E-2,2.8994405E-3,-1.0778828E-1,5.2161478E-3],"split_indices":[1,0,1,0,1,0,0],"split_type":[0,0,0,0,0,0,0],"sum_hessian":[3.580823E2,1.1539568E1,3.4654272E2,1.974121E1,3.268015E2,2.301425E1,3.0378726E2],"tree_param":{"num_deleted":"0","num_feature":"3","num_nodes":"7","size_leaf_vector":"1"}},{"base_weights":[-9.05233E-3,-1.0796993E-1,2.0727813E-2,9.764344E-2,-3.8610853E-2,-1.3650928E-1,6.249996E-3],"categories":[],"categories_nodes":[],"categories_segments":[],"categories_sizes":[],"default_left":[0,0,0,0,0,0,0],"id":64,"left_children":[1,-1,3,-1,5,-1,-1],"loss_changes":[1.1312634E1,0E0,1.9631248E1,0E0,4.3844707E1,0E0,0E0],"parents":[2147483647,0,0,2,2,4,4],"right_children":[2,-1,4,-1,6,-1,-1],"split_conditions":[7.176382E-1,-1.0796993E-1,7.177081E-1,9.764344E-2,7.201798E-1,-1.3650928E-1,6.249996E-3],"split_indices":[0,0,0,0,0,0,0],"split_type":[0,0,0,0,0,0,0],"sum_hessian":[3.5310388E2,8.601719E0,3.4450214E2,1.9235794E1,3.2526636E2,2.2151949E1,3.031144E2],"tree_param":{"num_deleted":"0","num_feature":"3","num_nodes":"7","size_leaf_vector":"1"}},{"base_weights":[-8.886984E-3,1.8236589E-2,-1.19067565E-1,-5.403673E-2,5.879001E-1,6.012513E-3,-2.432936E-1,7.443862E-2,-1.3642813E-1],"categories":[],"categories_nodes":[],"categories_segments":[],"categories_sizes":[],"default_left":[0,0,0,0,0,0,0,0,0],"id":65,"left_children":[1,3,-1,5,7,-1,-1,-1,-1],"loss_changes":[1.122221E1,1.4135773E1,0E0,8.295491E1,1.2823498E1,0E0,0E0,0E0,0E0],"parents":[2147483647,0,0,1,1,3,3,4,4],"right_children":[2,4,-1,6,8,-1,-1,-1,-1],"split_conditions":[1.0386464E-2,8.911214E-3,-1.19067565E-1,7.512311E-1,7.217558E-1,6.012513E-3,-2.432936E-1,7.443862E-2,-1.3642813E-1],"split_indices":[1,1,0,2,0,0,0,0,0],"split_type":[0,0,0,0,0,0,0,0,0],"sum_hessian":[3.4842224E2,3.415674E2,6.8548436E0,3.0391483E2,3.7652584E1,2.909281E2,1.2986728E1,3.543113E1,2.2214546E0],"tree_param":{"num_deleted":"0","num_feature":"3","num_nodes":"9","size_leaf_vector":"1"}},{"base_weights":[-9.357875E-3,-9.508303E-2,2.2709513E-2,8.7003164E-2,-2.8918723E-2,-1.0656498E-1,4.8582093E-3],"categories":[],"categories_nodes":[],"categories_segments":[],"categories_sizes":[],"default_left":[0,0,0,0,0,0,0],"id":66,"left_children":[1,-1,3,-1,5,-1,-1],"loss_changes":[1.0453015E1,0E0,1.4685016E1,0E0,2.5508797E1,0E0,0E0],"parents":[2147483647,0,0,2,2,4,4],"right_children":[2,-1,4,-1,6,-1,-1],"split_conditions":[1.8726315E-3,-9.508303E-2,1.8845502E-3,8.7003164E-2,2.8994405E-3,-1.0656498E-1,4.8582093E-3],"split_indices":[1,0,1,0,1,0,0],"split_type":[0,0,0,0,0,0,0],"sum_hessian":[3.4451935E2,1.0404375E1,3.34115E2,1.8278389E1,3.158366E2,2.1081291E1,2.947553E2],"tree_param":{"num_deleted":"0","num_feature":"3","num_nodes":"7","size_leaf_vector":"1"}},{"base_weights":[-9.103019E-3,1.8582255E-2,-1.0792097E-1,-4.5891743E-2,5.521339E-1,5.6484123E-3,-2.3749378E-1,-1.7771126E-1,7.24826E-2],"categories":[],"categories_nodes":[],"categories_segments":[],"categories_sizes":[],"default_left":[0,0,0,0,0,0,0,0,0],"id":67,"left_children":[1,3,-1,5,7,-1,-1,-1,-1],"loss_changes":[1.0122371E1,1.1493551E1,0E0,7.1274E1,1.5776267E1,0E0,0E0,0E0,0E0],"parents":[2147483647,0,0,1,1,3,3,4,4],"right_children":[2,4,-1,6,8,-1,-1,-1,-1],"split_conditions":[7.7305645E-1,8.911214E-3,-1.0792097E-1,7.512311E-1,7.6023865E-1,5.6484123E-3,-2.3749378E-1,-1.7771126E-1,7.24826E-2],"split_indices":[2,1,0,2,2,0,0,0,0],"split_type":[0,0,0,0,0,0,0,0,0],"sum_hessian":[3.3999268E2,3.3237622E2,7.616439E0,2.9735773E2,3.5018505E1,2.8577203E2,1.1585687E1,1.7758219E0,3.3242683E1],"tree_param":{"num_deleted":"0","num_feature":"3","num_nodes":"9","size_leaf_vector":"1"}},{"base_weights":[-9.57462E-3,-1.0606488E-1,1.8514173E-2,9.555028E-2,-3.7165195E-2,-1.3524747E-1,5.706717E-3],"categories":[],"categories_nodes":[],"categories_segments":[],"categories_sizes":[],"default_left":[0,0,0,0,0,0,0],"id":68,"left_children":[1,-1,3,-1,5,-1,-1],"loss_changes":[9.98669E0,0E0,1.7241175E1,0E0,3.877995E1,0E0,0E0],"parents":[2147483647,0,0,2,2,4,4],"right_children":[2,-1,4,-1,6,-1,-1],"split_conditions":[7.176382E-1,-1.0606488E-1,7.177081E-1,9.555028E-2,7.201798E-1,-1.3524747E-1,5.706717E-3],"split_indices":[0,0,0,0,0,0,0],"split_type":[0,0,0,0,0,0,0],"sum_hessian":[3.3659836E2,7.804272E0,3.287941E2,1.7535797E1,3.112583E2,1.9915947E1,2.9134235E2],"tree_param":{"num_deleted":"0","num_feature":"3","num_nodes":"7","size_leaf_vector":"1"}},{"base_weights":[-9.351759E-3,1.5057983E-2,-1.1566185E-1,-1.440369E-1,2.378769E-1,2.2949735E-3,-2.3333295E-1,6.631277E-2,-2.1762455E-2],"categories":[],"categories_nodes":[],"categories_segments":[],"categories_sizes":[],"default_left":[0,0,0,0,0,0,0,0,0],"id":69,"left_children":[1,3,-1,5,7,-1,-1,-1,-1],"loss_changes":[9.354554E0,1.1642396E1,0E0,7.01248E1,2.6640228E1,0E0,0E0,0E0,0E0],"parents":[2147483647,0,0,1,1,3,3,4,4],"right_children":[2,4,-1,6,8,-1,-1,-1,-1],"split_conditions":[1.0386464E-2,4.9111377E-3,-1.1566185E-1,7.3937726E-1,5.4836445E-3,2.2949735E-3,-2.3333295E-1,6.631277E-2,-2.1762455E-2],"split_indices":[1,1,0,2,1,0,0,0,0],"split_type":[0,0,0,0,0,0,0,0,0],"sum_hessian":[3.324158E2,3.2645685E2,5.958962E0,1.9067012E2,1.3578674E2,1.7807695E2,1.2593167E1,6.998953E1,6.579721E1],"tree_param":{"num_deleted":"0","num_feature":"3","num_nodes":"9","size_leaf_vector":"1"}},{"base_weights":[-9.4551705E-3,-9.404227E-2,2.0933304E-2,4.6490902E-1,-7.853912E-2,-3.4823597E-3,1.0245999E-1,-1.4351924E-1,8.026436E-3],"categories":[],"categories_nodes":[],"categories_segments":[],"categories_sizes":[],"default_left":[0,0,0,0,0,0,0,0,0],"id":70,"left_children":[1,-1,3,5,7,-1,-1,-1,-1],"loss_changes":[9.333757E0,0E0,1.4159901E1,1.6448318E1,5.6586346E1,0E0,0E0,0E0,0E0],"parents":[2147483647,0,0,2,2,3,3,4,4],"right_children":[2,-1,4,6,8,-1,-1,-1,-1],"split_conditions":[1.8726315E-3,-9.404227E-2,7.2923446E-1,7.291797E-1,3.4634527E-3,-3.4823597E-3,1.0245999E-1,-1.4351924E-1,8.026436E-3],"split_indices":[1,0,2,2,1,0,0,0,0],"split_type":[0,0,0,0,0,0,0,0,0],"sum_hessian":[3.2822754E2,9.428661E0,3.1879886E2,5.7680313E1,2.6111856E2,3.09678E1,2.6712515E1,2.6520153E1,2.345984E2],"tree_param":{"num_deleted":"0","num_feature":"3","num_nodes":"9","size_leaf_vector":"1"}},{"base_weights":[-9.272731E-3,-1.0408982E-1,1.7110838E-2,9.341754E-2,-3.5074037E-2,-1.337674E-1,5.083605E-3],"categories":[],"categories_nodes":[],"categories_segments":[],"categories_sizes":[],"default_left":[0,0,0,0,0,0,0],"id":71,"left_children":[1,-1,3,-1,5,-1,-1],"loss_changes":[8.828114E0,0E0,1.5184558E1,0E0,3.3698563E1,0E0,0E0],"parents":[2147483647,0,0,2,2,4,4],"right_children":[2,-1,4,-1,6,-1,-1],"split_conditions":[7.176382E-1,-1.0408982E-1,7.177081E-1,9.341754E-2,7.201798E-1,-1.337674E-1,5.083605E-3],"split_indices":[0,0,0,0,0,0,0],"split_type":[0,0,0,0,0,0,0],"sum_hessian":[3.226944E2,7.088139E0,3.1560626E2,1.6082428E1,2.9952383E2,1.7630667E1,2.8189316E2],"tree_param":{"num_deleted":"0","num_feature":"3","num_nodes":"7","size_leaf_vector":"1"}},{"base_weights":[-9.061268E-3,1.64423E-2,-1.051985E-1,-2.9955972E-2,7.2910404E-1,9.930995E-4,-1.8530814E-1,8.8546365E-2,5.1788714E-2],"categories":[],"categories_nodes":[],"categories_segments":[],"categories_sizes":[],"default_left":[0,0,0,0,0,0,0,0,0],"id":72,"left_children":[1,3,-1,5,7,-1,-1,-1,-1],"loss_changes":[8.528199E0,1.0382367E1,0E0,2.1480255E1,1.7525578E-1,0E0,0E0,0E0,0E0],"parents":[2147483647,0,0,1,1,3,3,4,4],"right_children":[2,4,-1,6,8,-1,-1,-1,-1],"split_conditions":[7.7305645E-1,7.7131635E-1,-1.051985E-1,7.617071E-1,7.207318E-1,9.930995E-4,-1.8530814E-1,8.8546365E-2,5.1788714E-2],"split_indices":[2,2,0,2,0,0,0,0,0],"split_type":[0,0,0,0,0,0,0,0,0],"sum_hessian":[3.1897946E2,3.1232608E2,6.6533613E0,2.9413428E2,1.8191824E1,2.8881012E2,5.324135E0,8.619086E0,9.572737E0],"tree_param":{"num_deleted":"0","num_feature":"3","num_nodes":"9","size_leaf_vector":"1"}},{"base_weights":[-8.684114E-3,-9.431686E-2,1.9755347E-2,9.228577E-2,-3.3966575E-2,-1.072765E-1,4.3406365E-3],"categories":[],"categories_nodes":[],"categories_segments":[],"categories_sizes":[],"default_left":[0,0,0,0,0,0,0],"id":73,"left_children":[1,-1,3,-1,5,-1,-1],"loss_changes":[8.472862E0,0E0,1.5056705E1,0E0,2.3618332E1,0E0,0E0],"parents":[2147483647,0,0,2,2,4,4],"right_children":[2,-1,4,-1,6,-1,-1],"split_conditions":[7.2765845E-1,-9.431686E-2,7.277238E-1,9.228577E-2,2.8994405E-3,-1.072765E-1,4.3406365E-3],"split_indices":[2,0,2,0,1,0,0],"split_type":[0,0,0,0,0,0,0],"sum_hessian":[3.1711237E2,8.4158E0,3.0869656E2,1.6423744E1,2.9227283E2,1.9368546E1,2.7290427E2],"tree_param":{"num_deleted":"0","num_feature":"3","num_nodes":"7","size_leaf_vector":"1"}},{"base_weights":[-8.463932E-3,1.3995197E-2,-1.12029694E-1,-4.8432928E-2,5.379533E-1,5.191506E-3,-2.1410953E-1,6.995375E-2,-1.287608E-1],"categories":[],"categories_nodes":[],"categories_segments":[],"categories_sizes":[],"default_left":[0,0,0,0,0,0,0,0,0],"id":74,"left_children":[1,3,-1,5,7,-1,-1,-1,-1],"loss_changes":[7.857472E0,1.0127083E1,0E0,5.824792E1,1.0623057E1,0E0,0E0,0E0,0E0],"parents":[2147483647,0,0,1,1,3,3,4,4],"right_children":[2,4,-1,6,8,-1,-1,-1,-1],"split_conditions":[1.0386464E-2,8.911214E-3,-1.12029694E-1,7.512311E-1,7.217558E-1,5.191506E-3,-2.1410953E-1,6.995375E-2,-1.287608E-1],"split_indices":[1,1,0,2,0,0,0,0,0],"split_type":[0,0,0,0,0,0,0,0,0],"sum_hessian":[3.1303848E2,3.0780814E2,5.23034E0,2.758491E2,3.1959072E1,2.6415732E2,1.1691761E1,2.9926983E1,2.0320895E0],"tree_param":{"num_deleted":"0","num_feature":"3","num_nodes":"9","size_leaf_vector":"1"}},{"base_weights":[-8.919899E-3,-2.8728902E-1,8.446706E-2,-1.3378611E0,-1.2936164E-3,8.7407535E-1,-4.4110492E-2,-1.0329392E-1,-1.9224939E-1,4.159846E-2,-7.186353E-2,-6.778674E-2,9.505941E-2,-6.573166E-2,1.658705E-2],"categories":[],"categories_nodes":[],"categories_segments":[],"categories_sizes":[],"default_left":[0,0,0,0,0,0,0,0,0,0,0,0,0,0,0],"id":75,"left_children":[1,3,5,7,9,11,13,-1,-1,-1,-1,-1,-1,-1,-1],"loss_changes":[8.108807E0,2.353913E1,2.375921E1,1.0026703E0,1.9032755E1,4.535408E0,2.6102856E1,0E0,0E0,0E0,0E0,0E0,0E0,0E0,0E0],"parents":[2147483647,0,0,1,1,2,2,3,3,4,4,5,5,6,6],"right_children":[2,4,6,8,10,12,14,-1,-1,-1,-1,-1,-1,-1,-1],"split_conditions":[7.208676E-1,4.2592324E-3,7.209236E-1,3.904533E-3,7.3937726E-1,2.8994405E-3,3.4634527E-3,-1.0329392E-1,-1.9224939E-1,4.159846E-2,-7.186353E-2,-6.778674E-2,9.505941E-2,-6.573166E-2,1.658705E-2],"split_indices":[0,1,0,1,2,1,1,0,0,0,0,0,0,0,0],"split_type":[0,0,0,0,0,0,0,0,0,0,0,0,0,0,0],"sum_hessian":[3.0999112E2,7.734972E1,2.326414E2,1.57641115E1,6.15856E1,3.1765862E1,2.0087555E2,1.217889E1,3.5852208E0,3.920192E1,2.2383684E1,1.1233513E0,3.0642511E1,5.069651E1,1.5017903E2],"tree_param":{"num_deleted":"0","num_feature":"3","num_nodes":"15","size_leaf_vector":"1"}},{"base_weights":[-9.198871E-3,-1.0162933E-1,1.5039431E-2,9.0757616E-2,-3.289149E-2,-1.3322322E-1,4.5671053E-3],"categories":[],"categories_nodes":[],"categories_segments":[],"categories_sizes":[],"default_left":[0,0,0,0,0,0,0],"id":76,"left_children":[1,-1,3,-1,5,-1,-1],"loss_changes":[7.4390874E0,0E0,1.2776791E1,0E0,2.9025242E1,0E0,0E0],"parents":[2147483647,0,0,2,2,4,4],"right_children":[2,-1,4,-1,6,-1,-1],"split_conditions":[7.176382E-1,-1.0162933E-1,7.177081E-1,9.0757616E-2,7.201798E-1,-1.3322322E-1,4.5671053E-3],"split_indices":[0,0,0,0,0,0,0],"split_type":[0,0,0,0,0,0,0],"sum_hessian":[3.0312634E2,6.162136E0,2.969642E2,1.4220715E1,2.8274347E2,1.5211066E1,2.675324E2],"tree_param":{"num_deleted":"0","num_feature":"3","num_nodes":"7","size_leaf_vector":"1"}},{"base_weights":[-8.9904E-3,1.43759465E-2,-1.0317673E-1,-1.4081141E-1,2.2800419E-1,2.1222145E-3,-2.3520207E-1,-2.1516927E-1,3.0616997E-2],"categories":[],"categories_nodes":[],"categories_segments":[],"categories_sizes":[],"default_left":[0,0,0,0,0,0,0,0,0],"id":77,"left_children":[1,3,-1,5,7,-1,-1,-1,-1],"loss_changes":[7.206709E0,9.818635E0,0E0,6.153436E1,2.3834425E1,0E0,0E0,0E0,0E0],"parents":[2147483647,0,0,1,1,3,3,4,4],"right_children":[2,4,-1,6,8,-1,-1,-1,-1],"split_conditions":[7.7305645E-1,4.9111377E-3,-1.0317673E-1,7.3937726E-1,7.3909116E-1,2.1222145E-3,-2.3520207E-1,-2.1516927E-1,3.0616997E-2],"split_indices":[2,1,0,2,2,0,0,0,0],"split_type":[0,0,0,0,0,0,0,0,0],"sum_hessian":[2.9993347E2,2.9419815E2,5.7353024E0,1.7060518E2,1.2359298E2,1.5987987E2,1.0725315E1,3.0869148E0,1.20506065E2],"tree_param":{"num_deleted":"0","num_feature":"3","num_nodes":"9","size_leaf_vector":"1"}},{"base_weights":[-1.0198114E-2,7.412181E-2,-3.0981383E-1,-1.16825E-1,7.2629213E-1,-2.377147E0,2.4022467E-2,-1.8589812E-3,-2.4640954E-1,8.07936E-2,-1.3519536E-1,-1.1208297E-1,-3.659304E-1,2.6676187E-2,-1.5505275E-1],"categories":[],"categories_nodes":[],"categories_segments":[],"categories_sizes":[],"default_left":[0,0,0,0,0,0,0,0,0,0,0,0,0,0,0],"id":78,"left_children":[1,3,5,7,9,11,13,-1,-1,-1,-1,-1,-1,-1,-1],"loss_changes":[7.5308337E0,2.9065624E1,4.523442E1,4.16616E1,1.0058758E1,1.0574444E1,2.233275E1,0E0,0E0,0E0,0E0,0E0,0E0,0E0,0E0],"parents":[2147483647,0,0,1,1,2,2,3,3,4,4,5,5,6,6],"right_children":[2,4,6,8,10,12,14,-1,-1,-1,-1,-1,-1,-1,-1],"split_conditions":[5.4836445E-3,4.993796E-3,6.6299844E-3,7.418649E-1,7.512311E-1,7.205753E-1,7.217558E-1,-1.8589812E-3,-2.4640954E-1,8.07936E-2,-1.3519536E-1,-1.1208297E-1,-3.659304E-1,2.6676187E-2,-1.5505275E-1],"split_indices":[1,1,1,2,2,0,0,0,0,0,0,0,0,0,0],"split_type":[0,0,0,0,0,0,0,0,0,0,0,0,0,0,0],"sum_hessian":[2.9618158E2,2.3172151E2,6.446005E1,1.7987683E2,5.184468E1,8.110963E0,5.634909E1,1.7361867E2,6.258164E0,5.0473087E1,1.371592E0,5.0433903E0,3.067573E0,4.9542053E1,6.8070374E0],"tree_param":{"num_deleted":"0","num_feature":"3","num_nodes":"15","size_leaf_vector":"1"}},{"base_weights":[-1.2202194E-2,2.939664E-1,-8.882312E-2,-1.6428079E-1,9.719274E-2,-1.3820489E-1,6.384374E-2,-1.07369415E-1,6.5415695E-2,-1.7025767E-1,9.7078355E-3],"categories":[],"categories_nodes":[],"categories_segments":[],"categories_sizes":[],"default_left":[0,0,0,0,0,0,0,0,0,0,0],"id":79,"left_children":[1,3,5,7,-1,-1,9,-1,-1,-1,-1],"loss_changes":[6.885439E0,1.8414753E1,4.6413406E1,2.7434994E1,0E0,0E0,1.2541689E1,0E0,0E0,0E0,0E0],"parents":[2147483647,0,0,1,1,2,2,3,3,6,6],"right_children":[2,4,6,8,-1,-1,10,-1,-1,-1,-1],"split_conditions":[7.2923446E-1,7.291797E-1,3.4634527E-3,7.2149664E-1,9.719274E-2,-1.3820489E-1,7.3154163E-1,-1.07369415E-1,6.5415695E-2,-1.7025767E-1,9.7078355E-3],"split_indices":[2,2,1,0,0,0,2,0,0,0,0],"split_type":[0,0,0,0,0,0,0,0,0,0,0],"sum_hessian":[2.9139743E2,5.7759666E1,2.3363777E2,3.491656E1,2.2843107E1,2.3818756E1,2.0981902E2,1.6391329E1,1.8525232E1,2.9471824E0,2.0687183E2],"tree_param":{"num_deleted":"0","num_feature":"3","num_nodes":"11","size_leaf_vector":"1"}},{"base_weights":[-1.2389054E-2,7.1450435E-2,-3.0574527E-1,-1.04087844E-1,6.919215E-1,-2.2445383E0,9.96926E-3,-1.0451495E-3,-2.3623069E-1,-9.728776E-2,8.070996E-2,-1.0898222E-1,-3.298533E-1,2.3686556E-2,-1.5035136E-1],"categories":[],"categories_nodes":[],"categories_segments":[],"categories_sizes":[],"default_left":[0,0,0,0,0,0,0,0,0,0,0,0,0,0,0],"id":80,"left_children":[1,3,5,7,9,11,13,-1,-1,-1,-1,-1,-1,-1,-1],"loss_changes":[7.054185E0,2.438051E1,3.90396E1,3.6944763E1,1.0247635E1,7.2744865E0,1.9522146E1,0E0,0E0,0E0,0E0,0E0,0E0,0E0,0E0],"parents":[2147483647,0,0,1,1,2,2,3,3,4,4,5,5,6,6],"right_children":[2,4,6,8,10,12,14,-1,-1,-1,-1,-1,-1,-1,-1],"split_conditions":[5.4836445E-3,4.993796E-3,6.6299844E-3,7.418649E-1,7.1995485E-1,7.205753E-1,7.217558E-1,-1.0451495E-3,-2.3623069E-1,-9.728776E-2,8.070996E-2,-1.0898222E-1,-3.298533E-1,2.3686556E-2,-1.5035136E-1],"split_indices":[1,1,1,2,0,0,0,0,0,0,0,0,0,0,0],"split_type":[0,0,0,0,0,0,0,0,0,0,0,0,0,0,0],"sum_hessian":[2.8492746E2,2.2218478E2,6.2742672E1,1.7383667E2,4.8348118E1,7.930756E0,5.4811916E1,1.678802E2,5.9564724E0,2.646633E0,4.5701485E1,4.755168E0,3.1755881E0,4.839952E1,6.4123983E0],"tree_param":{"num_deleted":"0","num_feature":"3","num_nodes":"15","size_leaf_vector":"1"}},{"base_weights":[-1.3996719E-2,6.902955E-3,-1.1196518E-1,-5.006546E-2,4.9607763E-1,2.9439183E-3,-2.2591154E-1,6.442746E-2,-1.14744045E-1],"categories":[],"categories_nodes":[],"categories_segments":[],"categories_sizes":[],"default_left":[0,0,0,0,0,0,0,0,0],"id":81,"left_children":[1,3,-1,5,7,-1,-1,-1,-1],"loss_changes":[6.507927E0,7.746191E0,0E0,4.3812435E1,7.801016E0,0E0,0E0,0E0,0E0],"parents":[2147483647,0,0,1,1,3,3,4,4],"right_children":[2,4,-1,6,8,-1,-1,-1,-1],"split_conditions":[1.0386464E-2,8.911214E-3,-1.1196518E-1,6.818007E-3,7.217558E-1,2.9439183E-3,-2.2591154E-1,6.442746E-2,-1.14744045E-1],"split_indices":[1,1,0,1,0,0,0,0,0],"split_type":[0,0,0,0,0,0,0,0,0],"sum_hessian":[2.8029852E2,2.7607376E2,4.2247353E0,2.4808041E2,2.7993355E1,2.4041447E2,7.6659455E0,2.623566E1,1.7576942E0],"tree_param":{"num_deleted":"0","num_feature":"3","num_nodes":"9","size_leaf_vector":"1"}},{"base_weights":[-1.4083604E-2,-2.8527746E-1,7.063695E-2,-1.3340912E0,-1.7130729E-2,8.292902E-1,-4.6748545E-2,-1.0113152E-1,-1.8824302E-1,8.812496E-2,-3.2856673E-2,-6.266122E-2,9.047643E-2,-6.051744E-2,1.4003056E-2],"categories":[],"categories_nodes":[],"categories_segments":[],"categories_sizes":[],"default_left":[0,0,0,0,0,0,0,0,0,0,0,0,0,0,0],"id":82,"left_children":[1,3,5,7,9,11,13,-1,-1,-1,-1,-1,-1,-1,-1],"loss_changes":[6.4319453E0,1.8715036E1,1.9046793E1,4.9500847E-1,1.5418806E1,3.7154808E0,1.9462854E1,0E0,0E0,0E0,0E0,0E0,0E0,0E0,0E0],"parents":[2147483647,0,0,1,1,2,2,3,3,4,4,5,5,6,6],"right_children":[2,4,6,8,10,12,14,-1,-1,-1,-1,-1,-1,-1,-1],"split_conditions":[7.208676E-1,4.2592324E-3,7.209236E-1,3.904533E-3,7.317236E-1,2.8994405E-3,7.3357457E-1,-1.0113152E-1,-1.8824302E-1,8.812496E-2,-3.2856673E-2,-6.266122E-2,9.047643E-2,-6.051744E-2,1.4003056E-2],"split_indices":[0,1,0,1,2,1,2,0,0,0,0,0,0,0,0],"split_type":[0,0,0,0,0,0,0,0,0,0,0,0,0,0,0],"sum_hessian":[2.7806857E2,6.562692E1,2.1244165E2,1.255292E1,5.3074E1,2.7653645E1,1.8478801E2,9.692074E0,2.860847E0,1.3191541E1,3.988246E1,1.0030161E0,2.6650629E1,4.5754047E1,1.3903397E2],"tree_param":{"num_deleted":"0","num_feature":"3","num_nodes":"15","size_leaf_vector":"1"}},{"base_weights":[-1.3551685E-2,2.9793862E-1,-8.865822E-2,-1.0013408E-1,9.275822E-2,-1.33848E-1,5.25358E-2,-1.05393864E-1,6.499825E-2,7.683138E-2,-2.149169E-3],"categories":[],"categories_nodes":[],"categories_segments":[],"categories_sizes":[],"default_left":[0,0,0,0,0,0,0,0,0,0,0],"id":83,"left_children":[1,3,5,7,-1,-1,9,-1,-1,-1,-1],"loss_changes":[6.43629E0,1.349184E1,3.916264E1,2.4763561E1,0E0,0E0,1.0614145E1,0E0,0E0,0E0,0E0],"parents":[2147483647,0,0,1,1,2,2,3,3,6,6],"right_children":[2,4,6,8,-1,-1,10,-1,-1,-1,-1],"split_conditions":[7.2923446E-1,7.291797E-1,3.4634527E-3,7.2149664E-1,9.275822E-2,-1.33848E-1,3.5147707E-3,-1.05393864E-1,6.499825E-2,7.683138E-2,-2.149169E-3],"split_indices":[2,2,1,0,0,0,1,0,0,0,0],"split_type":[0,0,0,0,0,0,0,0,0,0,0],"sum_hessian":[2.7298535E2,5.2458138E1,2.205272E2,3.265438E1,1.9803757E1,2.152372E1,1.9900348E2,1.4197118E1,1.8457262E1,1.7773289E1,1.812302E2],"tree_param":{"num_deleted":"0","num_feature":"3","num_nodes":"11","size_leaf_vector":"1"}},{"base_weights":[-1.2627512E-2,6.7155115E-2,-2.8939557E-1,-1.0306125E-1,6.70872E-1,-2.1219018E0,1.775729E-2,-1.2221615E-3,-2.2638524E-1,7.610794E-2,-1.3304947E-1,-1.0480453E-1,-2.9714757E-1,2.198389E-2,-1.3912861E-1],"categories":[],"categories_nodes":[],"categories_segments":[],"categories_sizes":[],"default_left":[0,0,0,0,0,0,0,0,0,0,0,0,0,0,0],"id":84,"left_children":[1,3,5,7,9,11,13,-1,-1,-1,-1,-1,-1,-1,-1],"loss_changes":[5.9493566E0,2.1574251E1,3.3966667E1,3.218488E1,9.346132E0,4.787899E0,1.5288425E1,0E0,0E0,0E0,0E0,0E0,0E0,0E0,0E0],"parents":[2147483647,0,0,1,1,2,2,3,3,4,4,5,5,6,6],"right_children":[2,4,6,8,10,12,14,-1,-1,-1,-1,-1,-1,-1,-1],"split_conditions":[5.4836445E-3,4.993796E-3,6.6299844E-3,7.418649E-1,7.512311E-1,7.205753E-1,7.217558E-1,-1.2221615E-3,-2.2638524E-1,7.610794E-2,-1.3304947E-1,-1.0480453E-1,-2.9714757E-1,2.198389E-2,-1.3912861E-1],"split_indices":[1,1,1,2,2,0,0,0,0,0,0,0,0,0,0],"split_type":[0,0,0,0,0,0,0,0,0,0,0,0,0,0,0],"sum_hessian":[2.675497E2,2.0827005E2,5.927967E1,1.631107E2,4.5159344E1,7.661581E0,5.1618088E1,1.5749525E2,5.615443E0,4.380466E1,1.3546833E0,4.3706794E0,3.2909014E0,4.588181E1,5.736278E0],"tree_param":{"num_deleted":"0","num_feature":"3","num_nodes":"15","size_leaf_vector":"1"}},{"base_weights":[-1.43194785E-2,5.7981857E-3,-1.09940864E-1,-4.757711E-2,4.679172E-1,2.8423814E-3,-2.121594E-1,-1.3254549E-1,5.8771383E-2],"categories":[],"categories_nodes":[],"categories_segments":[],"categories_sizes":[],"default_left":[0,0,0,0,0,0,0,0,0],"id":85,"left_children":[1,3,-1,5,7,-1,-1,-1,-1],"loss_changes":[5.785555E0,6.4579973E0,0E0,3.7072704E1,6.602926E0,0E0,0E0,0E0,0E0],"parents":[2147483647,0,0,1,1,3,3,4,4],"right_children":[2,4,-1,6,8,-1,-1,-1,-1],"split_conditions":[1.0386464E-2,8.911214E-3,-1.09940864E-1,6.818007E-3,7.6023865E-1,2.8423814E-3,-2.121594E-1,-1.3254549E-1,5.8771383E-2],"split_indices":[1,1,0,1,2,0,0,0,0],"split_type":[0,0,0,0,0,0,0,0,0],"sum_hessian":[2.6374225E2,2.59918E2,3.82425E0,2.3380975E2,2.6108257E1,2.2649625E2,7.313504E0,1.0046284E0,2.5103628E1],"tree_param":{"num_deleted":"0","num_feature":"3","num_nodes":"9","size_leaf_vector":"1"}},{"base_weights":[-1.4508378E-2,6.198831E-3,-1.0363231E-1,-3.0825887E-2,6.3869905E-1,2.3069764E-4,-1.5271187E-1,8.442783E-2,3.570062E-2],"categories":[],"categories_nodes":[],"categories_segments":[],"categories_sizes":[],"default_left":[0,0,0,0,0,0,0,0,0],"id":86,"left_children":[1,3,-1,5,7,-1,-1,-1,-1],"loss_changes":[5.567274E0,6.075322E0,0E0,1.2161724E1,5.293627E-1,0E0,0E0,0E0,0E0],"parents":[2147483647,0,0,1,1,3,3,4,4],"right_children":[2,4,-1,6,8,-1,-1,-1,-1],"split_conditions":[7.7305645E-1,7.7131635E-1,-1.0363231E-1,7.617071E-1,7.207318E-1,2.3069764E-4,-1.5271187E-1,8.442783E-2,3.570062E-2],"split_indices":[2,2,0,2,0,0,0,0,0],"split_type":[0,0,0,0,0,0,0,0,0],"sum_hessian":[2.618134E2,2.5758728E2,4.2261066E0,2.4424138E2,1.3345914E1,2.3992705E2,4.3143187E0,6.5607343E0,6.7851796E0],"tree_param":{"num_deleted":"0","num_feature":"3","num_nodes":"9","size_leaf_vector":"1"}},{"base_weights":[-1.3658237E-2,-2.83331E-1,6.937042E-2,-1.3325238E0,-3.0471392E-2,7.8906083E-1,-3.402719E-2,-9.973806E-2,-1.8196617E-1,8.6226955E-2,-3.363331E-2,9.477314E-2,2.4656974E-2,-5.4794904E-2,1.3606714E-2],"categories":[],"categories_nodes":[],"categories_segments":[],"categories_sizes":[],"default_left":[0,0,0,0,0,0,0,0,0,0,0,0,0,0,0],"id":87,"left_children":[1,3,5,7,9,11,13,-1,-1,-1,-1,-1,-1,-1,-1],"loss_changes":[5.8775454E0,1.635081E1,1.4972087E1,1.4019585E-1,1.4163825E1,1.9415789E0,1.5509228E1,0E0,0E0,0E0,0E0,0E0,0E0,0E0,0E0],"parents":[2147483647,0,0,1,1,2,2,3,3,4,4,5,5,6,6],"right_children":[2,4,6,8,10,12,14,-1,-1,-1,-1,-1,-1,-1,-1],"split_conditions":[7.208676E-1,4.2592324E-3,7.209236E-1,3.904533E-3,7.317236E-1,7.2923446E-1,7.3357457E-1,-9.973806E-2,-1.8196617E-1,8.6226955E-2,-3.363331E-2,9.477314E-2,2.4656974E-2,-5.4794904E-2,1.3606714E-2],"split_indices":[0,1,0,1,2,2,2,0,0,0,0,0,0,0,0],"split_type":[0,0,0,0,0,0,0,0,0,0,0,0,0,0,0],"sum_hessian":[2.6062314E2,6.07848E1,1.9983835E2,1.0975255E1,4.9809544E1,2.4270967E1,1.7556737E2,8.307354E0,2.6679008E0,1.2246281E1,3.7563263E1,1.8200571E1,6.0703964E0,4.310594E1,1.3246144E2],"tree_param":{"num_deleted":"0","num_feature":"3","num_nodes":"15","size_leaf_vector":"1"}},{"base_weights":[-1.2835672E-2,2.9618278E-1,-8.479414E-2,-8.852314E-2,4.61095E-1,-1.2982808E-1,4.6346165E-2,5.5931307E-2,-1.0097893E-1,-1.5353778E-1,7.820183E-3],"categories":[],"categories_nodes":[],"categories_segments":[],"categories_sizes":[],"default_left":[0,0,0,0,0,0,0,0,0,0,0],"id":88,"left_children":[1,3,5,-1,7,-1,9,-1,-1,-1,-1],"loss_changes":[5.7499876E0,9.925636E0,3.3415886E1,0E0,6.8525867E0,0E0,9.699964E0,0E0,0E0,0E0,0E0],"parents":[2147483647,0,0,1,1,2,2,4,4,6,6],"right_children":[2,4,6,-1,8,-1,10,-1,-1,-1,-1],"split_conditions":[7.2923446E-1,7.2765845E-1,3.4634527E-3,-8.852314E-2,2.9295846E-3,-1.2982808E-1,7.3154163E-1,5.5931307E-2,-1.0097893E-1,-1.5353778E-1,7.820183E-3],"split_indices":[2,2,1,0,1,0,2,0,0,0,0],"split_type":[0,0,0,0,0,0,0,0,0,0,0],"sum_hessian":[2.5645392E2,4.7850166E1,2.0860376E2,5.3261666E0,4.2524E1,1.9476942E1,1.8912682E2,4.0443157E1,2.0808408E0,2.8019931E0,1.8632483E2],"tree_param":{"num_deleted":"0","num_feature":"3","num_nodes":"11","size_leaf_vector":"1"}},{"base_weights":[-1.3683964E-2,6.253276E-2,-2.8450334E-1,-9.7398594E-2,6.3942605E-1,-2.0099037E0,2.0012133E-2,-9.983269E-4,-2.1573496E-1,-9.47633E-2,7.6071784E-2,-1.0111191E-1,-2.7028605E-1,4.09878E-2,-6.544172E-2],"categories":[],"categories_nodes":[],"categories_segments":[],"categories_sizes":[],"default_left":[0,0,0,0,0,0,0,0,0,0,0,0,0,0,0],"id":89,"left_children":[1,3,5,7,9,11,13,-1,-1,-1,-1,-1,-1,-1,-1],"loss_changes":[5.252169E0,1.8396593E1,2.9397293E1,2.8151068E1,9.049215E0,3.0751762E0,1.301612E1,0E0,0E0,0E0,0E0,0E0,0E0,0E0,0E0],"parents":[2147483647,0,0,1,1,2,2,3,3,4,4,5,5,6,6],"right_children":[2,4,6,8,10,12,14,-1,-1,-1,-1,-1,-1,-1,-1],"split_conditions":[5.4836445E-3,4.993796E-3,6.6299844E-3,7.418649E-1,7.1995485E-1,7.205753E-1,7.2128445E-1,-9.983269E-4,-2.1573496E-1,-9.47633E-2,7.6071784E-2,-1.0111191E-1,-2.7028605E-1,4.09878E-2,-6.544172E-2],"split_indices":[1,1,1,2,0,0,0,0,0,0,0,0,0,0,0],"split_type":[0,0,0,0,0,0,0,0,0,0,0,0,0,0,0],"sum_hessian":[2.5259172E2,1.9771724E2,5.4874485E1,1.5545251E2,4.2264725E1,7.3918047E0,4.7482677E1,1.5008827E2,5.364245E0,2.5170588E0,3.9747665E1,4.03506E0,3.356745E0,3.0337696E1,1.7144983E1],"tree_param":{"num_deleted":"0","num_feature":"3","num_nodes":"15","size_leaf_vector":"1"}},{"base_weights":[-1.45893125E-2,-7.795436E-2,3.201432E-1,1.9635709E-2,-1.9528176E0,6.790894E-1,-1.5133883E-1,-8.627241E-3,7.940552E-2,-8.511856E-2,-2.3359568E-1,-1.1788416E-1,8.328252E-2],"categories":[],"categories_nodes":[],"categories_segments":[],"categories_sizes":[],"default_left":[0,0,0,0,0,0,0,0,0,0,0,0,0],"id":90,"left_children":[1,3,5,7,9,11,-1,-1,-1,-1,-1,-1,-1],"loss_changes":[5.333537E0,3.869024E1,2.7375154E1,1.6618582E1,2.4273834E0,1.074158E1,0E0,0E0,0E0,0E0,0E0,0E0,0E0],"parents":[2147483647,0,0,1,1,2,2,3,3,4,4,5,5],"right_children":[2,4,6,8,10,12,-1,-1,-1,-1,-1,-1,-1],"split_conditions":[7.221636E-1,7.217558E-1,7.418649E-1,7.217085E-1,3.4634527E-3,3.904533E-3,-1.5133883E-1,-8.627241E-3,7.940552E-2,-8.511856E-2,-2.3359568E-1,-1.1788416E-1,8.328252E-2],"split_indices":[0,0,2,0,1,1,0,0,0,0,0,0,0],"split_type":[0,0,0,0,0,0,0,0,0,0,0,0,0],"sum_hessian":[2.4928265E2,2.1024944E2,3.903322E1,2.007876E2,9.461836E0,3.3169357E1,5.863861E0,1.7741347E2,2.3374126E1,3.2729115E0,6.1889243E0,2.0252917E0,3.1144068E1],"tree_param":{"num_deleted":"0","num_feature":"3","num_nodes":"13","size_leaf_vector":"1"}},{"base_weights":[-1.468128E-2,2.8411087E-1,-8.534728E-2,-6.1164375E-2,8.798993E-2,-1.2636118E-1,3.690805E-2,-1.0368987E-1,6.317826E-2,7.5394385E-2,-3.937773E-3],"categories":[],"categories_nodes":[],"categories_segments":[],"categories_sizes":[],"default_left":[0,0,0,0,0,0,0,0,0,0,0],"id":91,"left_children":[1,3,5,7,-1,-1,9,-1,-1,-1,-1],"loss_changes":[5.2257037E0,9.794108E0,2.885594E1,2.1555666E1,0E0,0E0,9.994176E0,0E0,0E0,0E0,0E0],"parents":[2147483647,0,0,1,1,2,2,3,3,6,6],"right_children":[2,4,6,8,-1,-1,10,-1,-1,-1,-1],"split_conditions":[7.2923446E-1,7.291797E-1,3.4634527E-3,7.2149664E-1,8.798993E-2,-1.2636118E-1,3.5147707E-3,-1.0368987E-1,6.317826E-2,7.5394385E-2,-3.937773E-3],"split_indices":[2,2,1,0,0,0,1,0,0,0,0],"split_type":[0,0,0,0,0,0,0,0,0,0,0],"sum_hessian":[2.4534581E2,4.6349392E1,1.9899641E2,2.9911957E1,1.6437437E1,1.7829037E1,1.8116737E2,1.2215303E1,1.7696651E1,1.6566847E1,1.6460052E2],"tree_param":{"num_deleted":"0","num_feature":"3","num_nodes":"11","size_leaf_vector":"1"}},{"base_weights":[-1.36229545E-2,4.6083406E-1,-5.561688E-2,-8.5665956E-2,9.07301E-2,-1.0103172E-1,3.8147566E-3,8.7267086E-2,-6.8744086E-3],"categories":[],"categories_nodes":[],"categories_segments":[],"categories_sizes":[],"default_left":[0,0,0,0,0,0,0,0,0],"id":92,"left_children":[1,3,5,-1,-1,-1,7,-1,-1],"loss_changes":[4.844191E0,1.2407822E1,1.2660752E1,0E0,0E0,0E0,1.336174E1,0E0,0E0],"parents":[2147483647,0,0,1,1,2,2,6,6],"right_children":[2,4,6,-1,-1,-1,8,-1,-1],"split_conditions":[7.277238E-1,7.2765845E-1,2.8994405E-3,-8.5665956E-2,9.07301E-2,-1.0103172E-1,2.9295846E-3,8.7267086E-2,-6.8744086E-3],"split_indices":[2,2,1,0,0,0,1,0,0],"split_type":[0,0,0,0,0,0,0,0,0],"sum_hessian":[2.4084328E2,1.8772577E1,2.220707E2,4.5188894E0,1.4253687E1,1.2076475E1,2.0999422E2,1.5335241E1,1.9465898E2],"tree_param":{"num_deleted":"0","num_feature":"3","num_nodes":"9","size_leaf_vector":"1"}},{"base_weights":[-1.2354435E-2,-7.3218465E-2,3.1536135E-1,1.8755844E-2,-1.8797009E0,6.644993E-1,-1.446082E-1,-8.255589E-3,7.749667E-2,-8.1344865E-2,-2.192037E-1,-1.1263311E-1,8.132392E-2],"categories":[],"categories_nodes":[],"categories_segments":[],"categories_sizes":[],"default_left":[0,0,0,0,0,0,0,0,0,0,0,0,0],"id":93,"left_children":[1,3,5,7,9,11,-1,-1,-1,-1,-1,-1,-1],"loss_changes":[4.7941985E0,3.3688137E1,2.411812E1,1.4905659E1,1.4880867E0,9.469318E0,0E0,0E0,0E0,0E0,0E0,0E0,0E0],"parents":[2147483647,0,0,1,1,2,2,3,3,4,4,5,5],"right_children":[2,4,6,8,10,12,-1,-1,-1,-1,-1,-1,-1],"split_conditions":[7.221636E-1,7.217558E-1,7.418649E-1,7.217085E-1,3.4634527E-3,3.904533E-3,-1.446082E-1,-8.255589E-3,7.749667E-2,-8.1344865E-2,-2.192037E-1,-1.1263311E-1,8.132392E-2],"split_indices":[0,0,2,0,1,1,0,0,0,0,0,0,0],"split_type":[0,0,0,0,0,0,0,0,0,0,0,0,0],"sum_hessian":[2.3820003E2,2.0154523E2,3.6654797E1,1.9272266E2,8.822563E0,3.1111E1,5.5437984E0,1.7073909E2,2.1983576E1,2.8154802E0,6.0070834E0,1.8817861E0,2.9229214E1],"tree_param":{"num_deleted":"0","num_feature":"3","num_nodes":"13","size_leaf_vector":"1"}},{"base_weights":[-1.2651728E-2,7.018293E-3,-9.997109E-2,-3.0617E-2,6.180161E-1,3.8157672E-5,-1.4407153E-1,8.287399E-2,3.2907277E-2],"categories":[],"categories_nodes":[],"categories_segments":[],"categories_sizes":[],"default_left":[0,0,0,0,0,0,0,0,0],"id":94,"left_children":[1,3,-1,5,7,-1,-1,-1,-1],"loss_changes":[4.5804653E0,5.3525724E0,0E0,9.592592E0,5.4958963E-1,0E0,0E0,0E0,0E0],"parents":[2147483647,0,0,1,1,3,3,4,4],"right_children":[2,4,-1,6,8,-1,-1,-1,-1],"split_conditions":[7.7305645E-1,7.7131635E-1,-9.997109E-2,7.617071E-1,7.207318E-1,3.8157672E-5,-1.4407153E-1,8.287399E-2,3.2907277E-2],"split_indices":[2,2,0,2,0,0,0,0,0],"split_type":[0,0,0,0,0,0,0,0,0],"sum_hessian":[2.3455687E2,2.3094746E2,3.609409E0,2.184421E2,1.2505366E1,2.1472154E2,3.720553E0,6.1511855E0,6.3541803E0],"tree_param":{"num_deleted":"0","num_feature":"3","num_nodes":"9","size_leaf_vector":"1"}},{"base_weights":[-1.19966455E-2,-9.368786E-2,9.043598E-3,8.722759E-2,-3.9624944E-2,-1.2703086E-1,2.8815828E-3],"categories":[],"categories_nodes":[],"categories_segments":[],"categories_sizes":[],"default_left":[0,0,0,0,0,0,0],"id":95,"left_children":[1,-1,3,-1,5,-1,-1],"loss_changes":[4.5722237E0,0E0,9.709845E0,0E0,1.8479555E1,0E0,0E0],"parents":[2147483647,0,0,2,2,4,4],"right_children":[2,-1,4,-1,6,-1,-1],"split_conditions":[7.176382E-1,-9.368786E-2,7.177081E-1,8.722759E-2,7.201798E-1,-1.2703086E-1,2.8815828E-3],"split_indices":[0,0,0,0,0,0,0],"split_type":[0,0,0,0,0,0,0],"sum_hessian":[2.3352269E2,4.2260723E0,2.2929662E2,1.1334482E1,2.1796213E2,1.0557593E1,2.0740454E2],"tree_param":{"num_deleted":"0","num_feature":"3","num_nodes":"7","size_leaf_vector":"1"}},{"base_weights":[-1.1558523E-2,4.58397E-1,-5.1680334E-2,-8.378212E-2,8.841381E-2,-9.9591926E-2,3.6140985E-3,8.475686E-2,-6.4867525E-3],"categories":[],"categories_nodes":[],"categories_segments":[],"categories_sizes":[],"default_left":[0,0,0,0,0,0,0,0,0],"id":96,"left_children":[1,3,5,-1,-1,-1,7,-1,-1],"loss_changes":[4.4052615E0,1.08836355E1,1.1228843E1,0E0,0E0,0E0,1.1851001E1,0E0,0E0],"parents":[2147483647,0,0,1,1,2,2,6,6],"right_children":[2,4,6,-1,-1,-1,8,-1,-1],"split_conditions":[7.277238E-1,7.2765845E-1,2.8994405E-3,-8.378212E-2,8.841381E-2,-9.9591926E-2,2.9295846E-3,8.475686E-2,-6.4867525E-3],"split_indices":[2,2,1,0,0,0,1,0,0],"split_type":[0,0,0,0,0,0,0,0,0],"sum_hessian":[2.3137674E2,1.7379675E1,2.1399706E2,4.057681E0,1.3321994E1,1.0897306E1,2.0309975E2,1.4389517E1,1.8871024E2],"tree_param":{"num_deleted":"0","num_feature":"3","num_nodes":"9","size_leaf_vector":"1"}},{"base_weights":[-1.0483228E-2,-1.9531634E-1,1.04764536E-1,7.9305805E-2,-2.3607917E0,5.1278454E-1,-1.2839904E-1,-2.1116177E-2,6.654138E-2,-1.13456964E-1,-2.8740826E-1,-1.1986815E-1,6.364896E-2,-1.9723211E-1,8.655262E-3],"categories":[],"categories_nodes":[],"categories_segments":[],"categories_sizes":[],"default_left":[0,0,0,0,0,0,0,0,0,0,0,0,0,0,0],"id":97,"left_children":[1,3,5,7,9,11,13,-1,-1,-1,-1,-1,-1,-1,-1],"loss_changes":[4.9195952E0,5.2922726E1,1.360468E1,1.3703089E1,3.0412827E0,1.1761877E1,3.638168E1,0E0,0E0,0E0,0E0,0E0,0E0,0E0,0E0],"parents":[2147483647,0,0,1,1,2,2,3,3,4,4,5,5,6,6],"right_children":[2,4,6,8,10,12,14,-1,-1,-1,-1,-1,-1,-1,-1],"split_conditions":[7.374872E-1,7.339244E-1,7.3937726E-1,3.904533E-3,3.589639E-3,7.201798E-1,4.9111377E-3,-2.1116177E-2,6.654138E-2,-1.13456964E-1,-2.8740826E-1,-1.1986815E-1,6.364896E-2,-1.9723211E-1,8.655262E-3],"split_indices":[2,2,2,1,1,0,1,0,0,0,0,0,0,0,0],"split_type":[0,0,0,0,0,0,0,0,0,0,0,0,0,0,0],"sum_hessian":[2.2898892E2,8.767767E1,1.4131126E2,7.8664894E1,9.012779E0,5.0951115E1,9.0360146E1,5.302574E1,2.563915E1,3.6067781E0,5.4060016E0,2.8487437E0,4.810237E1,8.58027E0,8.177988E1],"tree_param":{"num_deleted":"0","num_feature":"3","num_nodes":"15","size_leaf_vector":"1"}},{"base_weights":[-1.2090685E-2,4.5892912E-1,-5.1154137E-2,-8.1953704E-2,8.648815E-2,-9.800421E-2,-4.4903887E-4,8.2665585E-2,-6.6149286E-3],"categories":[],"categories_nodes":[],"categories_segments":[],"categories_sizes":[],"default_left":[0,0,0,0,0,0,0,0,0],"id":98,"left_children":[1,3,5,-1,-1,-1,7,-1,-1],"loss_changes":[4.1603713E0,9.697168E0,9.8205595E0,0E0,0E0,0E0,1.0853542E1,0E0,0E0],"parents":[2147483647,0,0,1,1,2,2,6,6],"right_children":[2,4,6,-1,-1,-1,8,-1,-1],"split_conditions":[7.277238E-1,7.2765845E-1,2.8994405E-3,-8.1953704E-2,8.648815E-2,-9.800421E-2,2.9295846E-3,8.2665585E-2,-6.6149286E-3],"split_indices":[2,2,1,0,0,0,1,0,0],"split_type":[0,0,0,0,0,0,0,0,0],"sum_hessian":[2.2383539E2,1.6318743E1,2.0751665E2,3.6873543E0,1.2631389E1,9.792654E0,1.97724E2,1.3697905E1,1.840261E2],"tree_param":{"num_deleted":"0","num_feature":"3","num_nodes":"9","size_leaf_vector":"1"}},{"base_weights":[-1.0962238E-2,-1.9656484E-1,1.0141101E-1,6.665772E-2,-2.244801E0,-1.09739676E-1,1.7397423E-1,-2.180524E-2,6.398568E-2,-1.30194E-1,-2.906485E-1,4.431799E-2,-2.6516575E-2],"categories":[],"categories_nodes":[],"categories_segments":[],"categories_sizes":[],"default_left":[0,0,0,0,0,0,0,0,0,0,0,0,0],"id":99,"left_children":[1,3,5,7,9,-1,11,-1,-1,-1,-1,-1,-1],"loss_changes":[4.664685E0,4.56125E1,1.2314893E1,1.2492285E1,2.224781E0,0E0,1.5755705E1,0E0,0E0,0E0,0E0,0E0,0E0],"parents":[2147483647,0,0,1,1,2,2,3,3,4,4,6,6],"right_children":[2,4,6,8,10,-1,12,-1,-1,-1,-1,-1,-1],"split_conditions":[7.374872E-1,7.339244E-1,7.201798E-1,3.904533E-3,3.904533E-3,-1.09739676E-1,7.2141045E-1,-2.180524E-2,6.398568E-2,-1.30194E-1,-2.906485E-1,4.431799E-2,-2.6516575E-2],"split_indices":[2,2,0,1,1,0,0,0,0,0,0,0,0],"split_type":[0,0,0,0,0,0,0,0,0,0,0,0,0],"sum_hessian":[2.2169756E2,8.332448E1,1.3837308E2,7.4693E1,8.631477E0,7.091528E0,1.3128154E2,5.0318966E1,2.4374033E1,4.783246E0,3.8482316E0,8.138249E1,4.989905E1],"tree_param":{"num_deleted":"0","num_feature":"3","num_nodes":"13","size_leaf_vector":"1"}}]},"name":"gbtree"},"learner_model_param":{"base_score":"[5E-1]","boost_from_average":"1","num_class":"0","num_feature":"3","num_target":"1"},"objective":{"name":"binary:logistic","reg_loss_param":{"scale_pos_weight":"216.421051"}}},"version":[3,1,3]}